{"learner":{"attributes":{"scikit_learn":"{\"_estimator_type\": \"regressor\"}"},"feature_names":["Hour","Day","Month","Weekday","Lag_1h","Lag_2h","Lag_24h","Lag_48h","Hour_Sin","Hour_Cos","Is_Weekend"],"feature_types":["int","int","int","int","float","float","float","float","float","float","int"],"gradient_booster":{"model":{"gbtree_model_param":{"num_parallel_tree":"1","num_trees":"200"},"iteration_indptr":[0,1,2,3,4,5,6,7,8,9,10,11,12,13,14,15,16,17,18,19,20,21,22,23,24,25,26,27,28,29,30,31,32,33,34,35,36,37,38,39,40,41,42,43,44,45,46,47,48,49,50,51,52,53,54,55,56,57,58,59,60,61,62,63,64,65,66,67,68,69,70,71,72,73,74,75,76,77,78,79,80,81,82,83,84,85,86,87,88,89,90,91,92,93,94,95,96,97,98,99,100,101,102,103,104,105,106,107,108,109,110,111,112,113,114,115,116,117,118,119,120,121,122,123,124,125,126,127,128,129,130,131,132,133,134,135,136,137,138,139,140,141,142,143,144,145,146,147,148,149,150,151,152,153,154,155,156,157,158,159,160,161,162,163,164,165,166,167,168,169,170,171,172,173,174,175,176,177,178,179,180,181,182,183,184,185,186,187,188,189,190,191,192,193,194,195,196,197,198,199,200],"tree_info":[0,0,0,0,0,0,0,0,0,0,0,0,0,0,0,0,0,0,0,0,0,0,0,0,0,0,0,0,0,0,0,0,0,0,0,0,0,0,0,0,0,0,0,0,0,0,0,0,0,0,0,0,0,0,0,0,0,0,0,0,0,0,0,0,0,0,0,0,0,0,0,0,0,0,0,0,0,0,0,0,0,0,0,0,0,0,0,0,0,0,0,0,0,0,0,0,0,0,0,0,0,0,0,0,0,0,0,0,0,0,0,0,0,0,0,0,0,0,0,0,0,0,0,0,0,0,0,0,0,0,0,0,0,0,0,0,0,0,0,0,0,0,0,0,0,0,0,0,0,0,0,0,0,0,0,0,0,0,0,0,0,0,0,0,0,0,0,0,0,0,0,0,0,0,0,0,0,0,0,0,0,0,0,0,0,0,0,0,0,0,0,0,0,0,0,0,0,0,0,0],"trees":[{"base_weights":[2.422553E-5,-2.3736574E2,1.999908E2,-3.815593E2,-1.2598244E2,1.0003307E2,3.6191977E2,-4.7429782E2,-3.26471E2,-1.8933574E2,-7.314328E1,4.1086E1,1.6451631E2,2.9839038E2,4.666147E2,-5.549999E2,-4.4532224E2,-3.601699E2,-2.8814417E2,-2.2192674E2,-1.607414E2,-1.0191302E2,-4.7367695E1,1.1554854E1,7.2127014E1,1.3472299E2,1.9899799E2,2.6686594E2,3.410749E2,4.301676E2,5.343236E2,-2.982288E1,-2.6353895E1,-2.3704027E1,-2.1183256E1,-1.8907158E1,-1.6995096E1,-1.5218909E1,-1.3474431E1,-1.1981429E1,-1.0426875E1,-8.854866E0,-7.398969E0,-5.8525643E0,-4.423293E0,-3.029277E0,-1.6329883E0,-1.6541956E-1,1.386826E0,2.7929661E0,4.2750726E0,5.9277005E0,7.5433154E0,9.132614E0,1.068436E1,1.2452619E1,1.4329117E1,1.6234495E1,1.8143291E1,2.0399105E1,2.2789228E1,2.5406694E1,2.8437735E1],"categories":[],"categories_nodes":[],"categories_segments":[],"categories_sizes":[],"default_left":[0,0,0,0,0,0,0,0,0,0,0,0,0,0,0,0,0,0,0,0,0,0,0,0,0,0,0,0,0,0,0,0,0,0,0,0,0,0,0,0,0,0,0,0,0,0,0,0,0,0,0,0,0,0,0,0,0,0,0,0,0,0,0],"id":0,"left_children":[1,3,5,7,9,11,13,15,17,19,21,23,25,27,29,31,33,35,37,39,41,43,45,47,49,51,53,55,57,59,61,-1,-1,-1,-1,-1,-1,-1,-1,-1,-1,-1,-1,-1,-1,-1,-1,-1,-1,-1,-1,-1,-1,-1,-1,-1,-1,-1,-1,-1,-1,-1,-1],"loss_changes":[2.6894434E10,4.1605386E9,4.9767066E9,5.760133E8,4.8923648E8,7.2265754E8,7.7987635E8,9.712128E7,9.098138E7,6.176435E7,5.9082304E7,9.105296E7,9.314458E7,9.784371E7,1.0819994E8,1.1267328E7,1.8287104E7,1.3082624E7,9.635584E6,7.109248E6,7.262848E6,7.614656E6,8.16488E6,1.2245184E7,1.051256E7,1.2628928E7,9.907456E6,1.440896E7,1.048448E7,1.5455232E7,1.2517888E7,0E0,0E0,0E0,0E0,0E0,0E0,0E0,0E0,0E0,0E0,0E0,0E0,0E0,0E0,0E0,0E0,0E0,0E0,0E0,0E0,0E0,0E0,0E0,0E0,0E0,0E0,0E0,0E0,0E0,0E0,0E0,0E0],"parents":[2147483647,0,0,1,1,2,2,3,3,4,4,5,5,6,6,7,7,8,8,9,9,10,10,11,11,12,12,13,13,14,14,15,15,16,16,17,17,18,18,19,19,20,20,21,21,22,22,23,23,24,24,25,25,26,26,27,27,28,28,29,29,30,30],"right_children":[2,4,6,8,10,12,14,16,18,20,22,24,26,28,30,32,34,36,38,40,42,44,46,48,50,52,54,56,58,60,62,-1,-1,-1,-1,-1,-1,-1,-1,-1,-1,-1,-1,-1,-1,-1,-1,-1,-1,-1,-1,-1,-1,-1,-1,-1,-1,-1,-1,-1,-1,-1,-1],"split_conditions":[1.6219679E3,1.3874854E3,1.8740803E3,1.238827E3,1.5098524E3,1.7448862E3,2.0272205E3,1.1348204E3,1.3186978E3,1.4497705E3,1.5663882E3,1.684426E3,1.8104999E3,1.9496235E3,2.1287468E3,1.0789592E3,1.1888481E3,1.2828823E3,1.3552529E3,1.4146838E3,1.4771278E3,1.5379045E3,1.5958635E3,1.6547327E3,1.7110756E3,1.7774358E3,1.8401609E3,1.9115292E3,1.9891866E3,2.0766816E3,2.1826177E3,-2.982288E1,-2.6353895E1,-2.3704027E1,-2.1183256E1,-1.8907158E1,-1.6995096E1,-1.5218909E1,-1.3474431E1,-1.1981429E1,-1.0426875E1,-8.854866E0,-7.398969E0,-5.8525643E0,-4.423293E0,-3.029277E0,-1.6329883E0,-1.6541956E-1,1.386826E0,2.7929661E0,4.2750726E0,5.9277005E0,7.5433154E0,9.132614E0,1.068436E1,1.2452619E1,1.4329117E1,1.6234495E1,1.8143291E1,2.0399105E1,2.2789228E1,2.5406694E1,2.8437735E1],"split_indices":[4,4,4,4,4,4,4,4,4,4,4,4,4,4,4,4,4,4,4,4,4,4,4,4,4,4,4,4,4,4,4,0,0,0,0,0,0,0,0,0,0,0,0,0,0,0,0,0,0,0,0,0,0,0,0,0,0,0,0,0,0,0,0],"split_type":[0,0,0,0,0,0,0,0,0,0,0,0,0,0,0,0,0,0,0,0,0,0,0,0,0,0,0,0,0,0,0,0,0,0,0,0,0,0,0,0,0,0,0,0,0,0,0,0,0,0,0,0,0,0,0,0,0,0,0,0,0,0,0],"sum_hessian":[5.66535E5,2.5906E5,3.07475E5,1.12896E5,1.46164E5,1.90122E5,1.17353E5,4.2057E4,7.0839E4,6.6463E4,7.9701E4,9.9329E4,9.0793E4,7.3047E4,4.4306E4,1.1087E4,3.097E4,3.7673E4,3.3166E4,3.1045E4,3.5418E4,3.7656E4,4.2045E4,5.0906E4,4.8423E4,4.8721E4,4.2072E4,4.2037E4,3.101E4,2.8826E4,1.548E4,4.421E3,6.666E3,1.3259E4,1.7711E4,1.992E4,1.7753E4,1.7693E4,1.5473E4,1.3333E4,1.7712E4,1.5495E4,1.9923E4,1.7696E4,1.996E4,2.2136E4,1.9909E4,2.6536E4,2.437E4,2.186E4,2.6563E4,2.4362E4,2.4359E4,1.9945E4,2.2127E4,2.212E4,1.9917E4,1.7746E4,1.3264E4,1.5493E4,1.3333E4,8.837E3,6.643E3],"tree_param":{"num_deleted":"0","num_feature":"11","num_nodes":"63","size_leaf_vector":"1"}},{"base_weights":[-1.4926777E-4,-2.2197769E2,1.9302612E2,-3.600719E2,-1.1478411E2,9.9149994E1,3.462223E2,-4.4695932E2,-3.057046E2,-1.7602826E2,-6.517993E1,4.4254047E1,1.6072427E2,2.854704E2,4.4329492E2,-5.1824316E2,-4.163265E2,-3.3983035E2,-2.7153183E2,-2.0655556E2,-1.4930234E2,-9.2274345E1,-3.952086E1,1.5968331E1,7.365359E1,1.3223752E2,1.922181E2,2.554046E2,3.2402667E2,4.0866675E2,5.0762482E2,-2.833342E1,-2.4690338E1,-2.1947287E1,-1.9683687E1,-1.7836573E1,-1.614558E1,-1.44581785E1,-1.2692863E1,-9.550387E0,-1.1082644E1,-6.908067E0,-8.374806E0,-4.10175E0,-5.5968456E0,-2.6023164E0,-1.280639E0,9.37745E-2,1.5582784E0,2.969083E0,4.395489E0,5.9099946E0,7.3795557E0,8.835194E0,1.0307551E1,1.2013731E1,1.3714595E1,1.52965765E1,1.7100636E1,1.9379482E1,2.1650198E1,2.4137075E1,2.7016916E1],"categories":[],"categories_nodes":[],"categories_segments":[],"categories_sizes":[],"default_left":[0,0,0,0,0,0,0,0,0,0,0,0,0,0,0,0,0,0,0,0,0,0,0,0,0,0,0,0,0,0,0,0,0,0,0,0,0,0,0,0,0,0,0,0,0,0,0,0,0,0,0,0,0,0,0,0,0,0,0,0,0,0,0],"id":1,"left_children":[1,3,5,7,9,11,13,15,17,19,21,23,25,27,29,31,33,35,37,39,41,43,45,47,49,51,53,55,57,59,61,-1,-1,-1,-1,-1,-1,-1,-1,-1,-1,-1,-1,-1,-1,-1,-1,-1,-1,-1,-1,-1,-1,-1,-1,-1,-1,-1,-1,-1,-1,-1,-1],"loss_changes":[2.4275038E10,3.900498E9,4.3578993E9,5.4328934E8,4.5065805E8,6.351067E8,6.783713E8,9.567949E7,8.215962E7,5.40096E7,5.697424E7,8.260806E7,7.932672E7,8.169523E7,9.767014E7,1.4336256E7,1.5029248E7,9.554688E6,1.0672384E7,7.059456E6,7.062848E6,7.981088E6,7.329604E6,1.0844944E7,9.884944E6,9.938304E6,8.907136E6,1.1049728E7,9.570304E6,1.394944E7,1.1300608E7,0E0,0E0,0E0,0E0,0E0,0E0,0E0,0E0,0E0,0E0,0E0,0E0,0E0,0E0,0E0,0E0,0E0,0E0,0E0,0E0,0E0,0E0,0E0,0E0,0E0,0E0,0E0,0E0,0E0,0E0,0E0,0E0],"parents":[2147483647,0,0,1,1,2,2,3,3,4,4,5,5,6,6,7,7,8,8,9,9,10,10,11,11,12,12,13,13,14,14,15,15,16,16,17,17,18,18,19,19,20,20,21,21,22,22,23,23,24,24,25,25,26,26,27,27,28,28,29,29,30,30],"right_children":[2,4,6,8,10,12,14,16,18,20,22,24,26,28,30,32,34,36,38,40,42,44,46,48,50,52,54,56,58,60,62,-1,-1,-1,-1,-1,-1,-1,-1,-1,-1,-1,-1,-1,-1,-1,-1,-1,-1,-1,-1,-1,-1,-1,-1,-1,-1,-1,-1,-1,-1,-1,-1],"split_conditions":[1.6275587E3,1.3922372E3,1.877642E3,1.2438972E3,1.5132649E3,1.7507826E3,2.0272205E3,1.1468268E3,1.3186978E3,1.453765E3,1.5722622E3,1.6894785E3,1.8137754E3,1.9496235E3,2.1287468E3,1.0789592E3,1.2031649E3,1.2828823E3,1.3552529E3,5E-1,7.0710677E-1,7.0710677E-1,1.6016661E3,1.6598444E3,1.7195209E3,1.7831572E3,1.8435054E3,1.9155272E3,1.9835957E3,2.0766816E3,2.1826177E3,-2.833342E1,-2.4690338E1,-2.1947287E1,-1.9683687E1,-1.7836573E1,-1.614558E1,-1.44581785E1,-1.2692863E1,-9.550387E0,-1.1082644E1,-6.908067E0,-8.374806E0,-4.10175E0,-5.5968456E0,-2.6023164E0,-1.280639E0,9.37745E-2,1.5582784E0,2.969083E0,4.395489E0,5.9099946E0,7.3795557E0,8.835194E0,1.0307551E1,1.2013731E1,1.3714595E1,1.52965765E1,1.7100636E1,1.9379482E1,2.1650198E1,2.4137075E1,2.7016916E1],"split_indices":[4,4,4,4,4,4,4,4,4,4,4,4,4,4,4,4,4,4,4,9,9,9,4,4,4,4,4,4,4,4,4,0,0,0,0,0,0,0,0,0,0,0,0,0,0,0,0,0,0,0,0,0,0,0,0,0,0,0,0,0,0,0,0],"split_type":[0,0,0,0,0,0,0,0,0,0,0,0,0,0,0,0,0,0,0,0,0,0,0,0,0,0,0,0,0,0,0,0,0,0,0,0,0,0,0,0,0,0,0,0,0,0,0,0,0,0,0,0,0,0,0,0,0,0,0,0,0,0,0],"sum_hessian":[5.66535E5,2.63506E5,3.03029E5,1.1515E5,1.48356E5,1.87897E5,1.15132E5,4.4306E4,7.0844E4,6.6383E4,8.1973E4,9.934E4,8.8557E4,7.0826E4,4.4306E4,1.3293E4,3.1013E4,3.5424E4,3.542E4,3.0972E4,3.5411E4,3.9865E4,4.2108E4,5.0633E4,4.8707E4,4.6512E4,4.2045E4,3.9816E4,3.101E4,2.8826E4,1.548E4,4.421E3,8.872E3,1.5472E4,1.5541E4,1.7671E4,1.7753E4,1.7693E4,1.7727E4,1.5292E4,1.568E4,2.1989E4,1.3422E4,2.6231E4,1.3634E4,2.2148E4,1.996E4,2.6274E4,2.4359E4,2.4353E4,2.4354E4,2.432E4,2.2192E4,1.9926E4,2.2119E4,2.2145E4,1.7671E4,1.5503E4,1.5507E4,1.5493E4,1.3333E4,8.837E3,6.643E3],"tree_param":{"num_deleted":"0","num_feature":"11","num_nodes":"63","size_leaf_vector":"1"}},{"base_weights":[-2.5740647E-4,-2.1593742E2,1.7909671E2,-3.4666968E2,-1.16914825E2,8.768014E1,3.2450168E2,-4.317846E2,-2.987508E2,-1.745804E2,-6.884175E1,3.4669773E1,1.4569238E2,2.652378E2,4.1754623E2,-5.0114398E2,-4.049743E2,-3.3116663E2,-2.6626254E2,-2.0649928E2,-1.5017836E2,-9.5098495E1,-4.5350105E1,6.7699265E0,6.1460438E1,1.1765191E2,1.7505714E2,2.3366649E2,2.987572E2,3.814956E2,4.760559E2,-2.6918354E1,-2.3803598E1,-2.1399515E1,-1.9258482E1,-1.7495821E1,-1.5822769E1,-1.4155469E1,-1.2466453E1,-9.272961E0,-1.0837619E1,-8.271575E0,-6.8273973E0,-4.257384E0,-5.682033E0,-1.890881E0,-3.350016E0,-3.977453E-1,9.51765E-1,2.3370576E0,3.7400491E0,5.147287E0,6.5493736E0,7.931709E0,9.42344E0,1.0897335E1,1.237928E1,1.4135039E1,1.5961357E1,1.793915E1,2.004759E1,2.2672152E1,2.5667084E1],"categories":[],"categories_nodes":[],"categories_segments":[],"categories_sizes":[],"default_left":[0,0,0,0,0,0,0,0,0,0,0,0,0,0,0,0,0,0,0,0,0,0,0,0,0,0,0,0,0,0,0,0,0,0,0,0,0,0,0,0,0,0,0,0,0,0,0,0,0,0,0,0,0,0,0,0,0,0,0,0,0,0,0],"id":2,"left_children":[1,3,5,7,9,11,13,15,17,19,21,23,25,27,29,31,33,35,37,39,41,43,45,47,49,51,53,55,57,59,61,-1,-1,-1,-1,-1,-1,-1,-1,-1,-1,-1,-1,-1,-1,-1,-1,-1,-1,-1,-1,-1,-1,-1,-1,-1,-1,-1,-1,-1,-1,-1,-1],"loss_changes":[2.1910385E10,3.3249014E9,4.1163878E9,4.5085696E8,4.0511898E8,5.847396E8,6.586286E8,7.311206E7,7.416474E7,5.159949E7,4.914957E7,7.426954E7,7.465446E7,7.694797E7,9.718784E7,9.069568E6,1.2292096E7,9.221376E6,9.747712E6,6.0064E6,7.72E6,6.896288E6,6.850336E6,8.792822E6,9.936112E6,9.043584E6,9.616128E6,7.965184E6,1.1186432E7,1.2007424E7,1.376768E7,0E0,0E0,0E0,0E0,0E0,0E0,0E0,0E0,0E0,0E0,0E0,0E0,0E0,0E0,0E0,0E0,0E0,0E0,0E0,0E0,0E0,0E0,0E0,0E0,0E0,0E0,0E0,0E0,0E0,0E0,0E0,0E0],"parents":[2147483647,0,0,1,1,2,2,3,3,4,4,5,5,6,6,7,7,8,8,9,9,10,10,11,11,12,12,13,13,14,14,15,15,16,16,17,17,18,18,19,19,20,20,21,21,22,22,23,23,24,24,25,25,26,26,27,27,28,28,29,29,30,30],"right_children":[2,4,6,8,10,12,14,16,18,20,22,24,26,28,30,32,34,36,38,40,42,44,46,48,50,52,54,56,58,60,62,-1,-1,-1,-1,-1,-1,-1,-1,-1,-1,-1,-1,-1,-1,-1,-1,-1,-1,-1,-1,-1,-1,-1,-1,-1,-1,-1,-1,-1,-1,-1,-1],"split_conditions":[1.6190636E3,1.3829456E3,1.8705546E3,1.2333502E3,1.506213E3,1.7420768E3,2.0201385E3,1.1348204E3,1.3097314E3,1.4413138E3,1.5632656E3,1.6791472E3,1.804265E3,1.9363887E3,2.1187327E3,1.0789592E3,1.1888481E3,1.2688479E3,1.3457454E3,6.123234E-17,1.4732928E3,7.0710677E-1,8.660254E-1,1.6466188E3,1.7084202E3,1.771551E3,1.8335035E3,1.900125E3,1.9782281E3,2.0626409E3,2.1826177E3,-2.6918354E1,-2.3803598E1,-2.1399515E1,-1.9258482E1,-1.7495821E1,-1.5822769E1,-1.4155469E1,-1.2466453E1,-9.272961E0,-1.0837619E1,-8.271575E0,-6.8273973E0,-4.257384E0,-5.682033E0,-1.890881E0,-3.350016E0,-3.977453E-1,9.51765E-1,2.3370576E0,3.7400491E0,5.147287E0,6.5493736E0,7.931709E0,9.42344E0,1.0897335E1,1.237928E1,1.4135039E1,1.5961357E1,1.793915E1,2.004759E1,2.2672152E1,2.5667084E1],"split_indices":[4,4,4,4,4,4,4,4,4,4,4,4,4,4,4,4,4,4,4,9,4,9,9,4,4,4,4,4,4,4,4,0,0,0,0,0,0,0,0,0,0,0,0,0,0,0,0,0,0,0,0,0,0,0,0,0,0,0,0,0,0,0,0],"split_type":[0,0,0,0,0,0,0,0,0,0,0,0,0,0,0,0,0,0,0,0,0,0,0,0,0,0,0,0,0,0,0,0,0,0,0,0,0,0,0,0,0,0,0,0,0,0,0,0,0,0,0,0,0,0,0,0,0,0,0,0,0,0,0],"sum_hessian":[5.66535E5,2.5685E5,3.09685E5,1.10695E5,1.46155E5,1.90147E5,1.19538E5,3.9858E4,7.0837E4,6.6442E4,7.9713E4,9.9361E4,9.0786E4,7.3037E4,4.6501E4,1.1087E4,2.8771E4,3.5435E4,3.5402E4,2.8771E4,3.7671E4,3.7634E4,4.2079E4,4.8676E4,5.0685E4,4.6453E4,4.4333E4,3.7632E4,3.5405E4,2.8796E4,1.7705E4,4.421E3,6.666E3,1.3259E4,1.5512E4,1.5529E4,1.9906E4,1.7707E4,1.7695E4,9.458E3,1.9313E4,1.7751E4,1.992E4,2.4509E4,1.3125E4,3.1228E4,1.0851E4,2.2121E4,2.6555E4,2.4108E4,2.6577E4,2.2112E4,2.4341E4,1.9958E4,2.4375E4,1.7712E4,1.992E4,1.9883E4,1.5522E4,1.3331E4,1.5465E4,1.1062E4,6.643E3],"tree_param":{"num_deleted":"0","num_feature":"11","num_nodes":"63","size_leaf_vector":"1"}},{"base_weights":[-4.8028465E-4,-2.0035234E2,1.7422063E2,-3.2294168E2,-1.0191504E2,9.078019E1,3.1467255E2,-4.0034238E2,-2.7208038E2,-1.5383644E2,-5.593389E1,4.10835E1,1.4777267E2,2.6168674E2,4.0387085E2,-4.6099628E2,-3.6994308E2,-3.0102344E2,-2.3921631E2,-1.8083284E2,-1.2854805E2,-7.770015E1,-3.288819E1,1.548917E1,6.8843895E1,1.2312303E2,1.7787073E2,2.3382312E2,2.9740826E2,3.754548E2,4.6527844E2,-2.4920229E1,-2.1627531E1,-1.9478148E1,-1.7510641E1,-1.5807307E1,-1.4197031E1,-1.2650823E1,-1.1168534E1,-9.815907E0,-8.362021E0,-5.9825454E0,-7.417273E0,-4.6026435E0,-3.311161E0,-1.277763E0,-2.7146351E0,1.3454942E-1,1.520842E0,2.8438222E0,4.1581798E0,5.5180216E0,6.919234E0,8.257125E0,9.527876E0,1.1003509E1,1.2550101E1,1.413812E1,1.5845247E1,1.7798382E1,1.9902975E1,2.2392576E1,2.4977251E1],"categories":[],"categories_nodes":[],"categories_segments":[],"categories_sizes":[],"default_left":[0,0,0,0,0,0,0,0,0,0,0,0,0,0,0,0,0,0,0,0,0,0,0,0,0,0,0,0,0,0,0,0,0,0,0,0,0,0,0,0,0,0,0,0,0,0,0,0,0,0,0,0,0,0,0,0,0,0,0,0,0,0,0],"id":3,"left_children":[1,3,5,7,9,11,13,15,17,19,21,23,25,27,29,31,33,35,37,39,41,43,45,47,49,51,53,55,57,59,61,-1,-1,-1,-1,-1,-1,-1,-1,-1,-1,-1,-1,-1,-1,-1,-1,-1,-1,-1,-1,-1,-1,-1,-1,-1,-1,-1,-1,-1,-1,-1,-1],"loss_changes":[1.977555E10,3.1797187E9,3.5512248E9,4.6145024E8,3.4889997E8,5.3841395E8,5.3321933E8,8.493261E7,6.7016704E7,4.6745984E7,3.887365E7,7.215389E7,6.5586816E7,7.018342E7,7.254784E7,1.542912E7,1.1324672E7,9.27616E6,6.976E6,6.82112E6,6.157056E6,6.536048E6,5.904524E6,1.0096028E7,8.324928E6,9.408896E6,6.278784E6,9.134592E6,8.413184E6,1.1973888E7,6.81728E6,0E0,0E0,0E0,0E0,0E0,0E0,0E0,0E0,0E0,0E0,0E0,0E0,0E0,0E0,0E0,0E0,0E0,0E0,0E0,0E0,0E0,0E0,0E0,0E0,0E0,0E0,0E0,0E0,0E0,0E0,0E0,0E0],"parents":[2147483647,0,0,1,1,2,2,3,3,4,4,5,5,6,6,7,7,8,8,9,9,10,10,11,11,12,12,13,13,14,14,15,15,16,16,17,17,18,18,19,19,20,20,21,21,22,22,23,23,24,24,25,25,26,26,27,27,28,28,29,29,30,30],"right_children":[2,4,6,8,10,12,14,16,18,20,22,24,26,28,30,32,34,36,38,40,42,44,46,48,50,52,54,56,58,60,62,-1,-1,-1,-1,-1,-1,-1,-1,-1,-1,-1,-1,-1,-1,-1,-1,-1,-1,-1,-1,-1,-1,-1,-1,-1,-1,-1,-1,-1,-1,-1,-1],"split_conditions":[1.6275587E3,1.3968162E3,1.8812479E3,1.2491125E3,1.5203451E3,1.7538019E3,2.034008E3,1.156685E3,1.3277075E3,1.4615052E3,1.5781915E3,1.6920535E3,1.8203103E3,1.9541027E3,2.1401267E3,1.101377E3,1.2098394E3,1.291925E3,1.364515E3,1.428216E3,8.660254E-1,1.5475629E3,8.660254E-1,1.6624956E3,1.7250143E3,1.7889862E3,1.8501163E3,1.919534E3,1.9950513E3,2.0845212E3,2.2010002E3,-2.4920229E1,-2.1627531E1,-1.9478148E1,-1.7510641E1,-1.5807307E1,-1.4197031E1,-1.2650823E1,-1.1168534E1,-9.815907E0,-8.362021E0,-5.9825454E0,-7.417273E0,-4.6026435E0,-3.311161E0,-1.277763E0,-2.7146351E0,1.3454942E-1,1.520842E0,2.8438222E0,4.1581798E0,5.5180216E0,6.919234E0,8.257125E0,9.527876E0,1.1003509E1,1.2550101E1,1.413812E1,1.5845247E1,1.7798382E1,1.9902975E1,2.2392576E1,2.4977251E1],"split_indices":[4,4,4,4,4,4,4,4,4,4,4,4,4,4,4,4,4,4,4,4,9,4,9,4,4,4,4,4,4,4,4,0,0,0,0,0,0,0,0,0,0,0,0,0,0,0,0,0,0,0,0,0,0,0,0,0,0,0,0,0,0,0,0],"split_type":[0,0,0,0,0,0,0,0,0,0,0,0,0,0,0,0,0,0,0,0,0,0,0,0,0,0,0,0,0,0,0,0,0,0,0,0,0,0,0,0,0,0,0,0,0,0,0,0,0,0,0,0,0,0,0,0,0,0,0,0,0,0,0],"sum_hessian":[5.66535E5,2.63506E5,3.03029E5,1.17351E5,1.46155E5,1.90101E5,1.12928E5,4.6521E4,7.083E4,6.8638E4,7.7517E4,1.01555E5,8.8546E4,7.0857E4,4.2071E4,1.5508E4,3.1013E4,3.764E4,3.319E4,3.3183E4,3.5455E4,3.9859E4,3.7658E4,5.2843E4,4.8712E4,4.8693E4,3.9853E4,3.9828E4,3.1029E4,2.8786E4,1.3285E4,6.663E3,8.845E3,1.5503E4,1.551E4,1.9919E4,1.7721E4,1.77E4,1.549E4,1.548E4,1.7703E4,2.4486E4,1.0969E4,1.7695E4,2.2164E4,2.8057E4,9.601E3,2.8454E4,2.4389E4,2.6549E4,2.2163E4,2.654E4,2.2153E4,1.9929E4,1.9924E4,2.2158E4,1.767E4,1.7763E4,1.3266E4,1.5504E4,1.3282E4,8.853E3,4.432E3],"tree_param":{"num_deleted":"0","num_feature":"11","num_nodes":"63","size_leaf_vector":"1"}},{"base_weights":[-4.8278167E-4,-1.9491302E2,1.616588E2,-3.1290283E2,-1.0554217E2,7.914842E1,2.928978E2,-3.8978128E2,-2.69621E2,-1.5930244E2,-6.34192E1,2.8996479E1,1.2911351E2,2.3938823E2,3.7690802E2,-4.6277307E2,-3.68838E2,-3.0082724E2,-2.420245E2,-1.8638594E2,-1.3728665E2,-8.994167E1,-4.321026E1,3.8771749E0,5.0952225E1,1.02672676E2,1.567738E2,2.1252563E2,2.7154138E2,3.4428497E2,4.29855E2,-2.5457188E1,-2.2336346E1,-1.9687403E1,-1.7505262E1,-1.579467E1,-1.4375876E1,-1.2953719E1,-1.1341091E1,-8.4721E0,-9.895957E0,-6.2455764E0,-7.6049232E0,-4.0244875E0,-5.360354E0,-2.781558E0,-1.4774547E0,5.237574E-1,-9.0899175E-1,1.8851492E0,3.1487901E0,4.411146E0,5.7348394E0,7.169829E0,8.570754E0,9.906052E0,1.1344167E1,1.2740475E1,1.4305242E1,1.6185383E1,1.8095625E1,2.0158361E1,2.2814856E1],"categories":[],"categories_nodes":[],"categories_segments":[],"categories_sizes":[],"default_left":[0,0,0,0,0,0,0,0,0,0,0,0,0,0,0,0,0,0,0,0,0,0,0,0,0,0,0,0,0,0,0,0,0,0,0,0,0,0,0,0,0,0,0,0,0,0,0,0,0,0,0,0,0,0,0,0,0,0,0,0,0,0,0],"id":4,"left_children":[1,3,5,7,9,11,13,15,17,19,21,23,25,27,29,31,33,35,37,39,41,43,45,47,49,51,53,55,57,59,61,-1,-1,-1,-1,-1,-1,-1,-1,-1,-1,-1,-1,-1,-1,-1,-1,-1,-1,-1,-1,-1,-1,-1,-1,-1,-1,-1,-1,-1,-1,-1,-1],"loss_changes":[1.7851505E10,2.7083315E9,3.3533865E9,3.6782182E8,3.309348E8,4.7647283E8,5.369354E8,6.008371E7,6.064333E7,3.815629E7,4.390928E7,5.2340336E7,6.95831E7,6.279885E7,7.958938E7,5.460736E6,1.3776128E7,6.208256E6,9.457408E6,5.455424E6,6.400256E6,5.739968E6,7.88628E6,6.443484E6,8.055352E6,8.413152E6,8.992768E6,8.009984E6,7.732224E6,9.860864E6,1.1577088E7,0E0,0E0,0E0,0E0,0E0,0E0,0E0,0E0,0E0,0E0,0E0,0E0,0E0,0E0,0E0,0E0,0E0,0E0,0E0,0E0,0E0,0E0,0E0,0E0,0E0,0E0,0E0,0E0,0E0,0E0,0E0,0E0],"parents":[2147483647,0,0,1,1,2,2,3,3,4,4,5,5,6,6,7,7,8,8,9,9,10,10,11,11,12,12,13,13,14,14,15,15,16,16,17,17,18,18,19,19,20,20,21,21,22,22,23,23,24,24,25,25,26,26,27,27,28,28,29,29,30,30],"right_children":[2,4,6,8,10,12,14,16,18,20,22,24,26,28,30,32,34,36,38,40,42,44,46,48,50,52,54,56,58,60,62,-1,-1,-1,-1,-1,-1,-1,-1,-1,-1,-1,-1,-1,-1,-1,-1,-1,-1,-1,-1,-1,-1,-1,-1,-1,-1,-1,-1,-1,-1,-1,-1],"split_conditions":[1.6190636E3,1.3829456E3,1.8705546E3,1.2333502E3,1.5026125E3,1.7363402E3,2.0201385E3,1.1199581E3,1.3052919E3,1.4413138E3,1.5570867E3,1.6738406E3,1.8012673E3,1.9407494E3,2.1187327E3,1.0479531E3,1.181232E3,1.2688479E3,1.3411038E3,2.5881904E-1,5E-1,7.0710677E-1,1.5898472E3,8.660254E-1,1.7029232E3,1.7654875E3,1.8367495E3,1.9037365E3,1.9733931E3,2.0626409E3,2.1662563E3,-2.5457188E1,-2.2336346E1,-1.9687403E1,-1.7505262E1,-1.579467E1,-1.4375876E1,-1.2953719E1,-1.1341091E1,-8.4721E0,-9.895957E0,-6.2455764E0,-7.6049232E0,-4.0244875E0,-5.360354E0,-2.781558E0,-1.4774547E0,5.237574E-1,-9.0899175E-1,1.8851492E0,3.1487901E0,4.411146E0,5.7348394E0,7.169829E0,8.570754E0,9.906052E0,1.1344167E1,1.2740475E1,1.4305242E1,1.6185383E1,1.8095625E1,2.0158361E1,2.2814856E1],"split_indices":[4,4,4,4,4,4,4,4,4,4,4,4,4,4,4,4,4,4,4,9,9,9,4,9,4,4,4,4,4,4,4,0,0,0,0,0,0,0,0,0,0,0,0,0,0,0,0,0,0,0,0,0,0,0,0,0,0,0,0,0,0,0,0],"split_type":[0,0,0,0,0,0,0,0,0,0,0,0,0,0,0,0,0,0,0,0,0,0,0,0,0,0,0,0,0,0,0,0,0,0,0,0,0,0,0,0,0,0,0,0,0,0,0,0,0,0,0,0,0,0,0,0,0,0,0,0,0,0,0],"sum_hessian":[5.66535E5,2.5685E5,3.09685E5,1.10695E5,1.46155E5,1.90147E5,1.19538E5,3.9858E4,7.0837E4,6.4202E4,8.1953E4,9.49E4,9.5247E4,7.3037E4,4.6501E4,8.863E3,3.0995E4,3.3221E4,3.7616E4,2.8771E4,3.5431E4,3.5433E4,4.652E4,4.4264E4,5.0636E4,4.8709E4,4.6538E4,3.9813E4,3.3224E4,2.8796E4,1.7705E4,2.239E3,6.624E3,1.3261E4,1.7734E4,1.5529E4,1.7692E4,1.7693E4,1.9923E4,1.1684E4,1.7087E4,1.9329E4,1.6102E4,2.2916E4,1.2517E4,2.4358E4,2.2162E4,3.4074E4,1.019E4,2.41E4,2.6536E4,2.2142E4,2.6567E4,2.4347E4,2.2191E4,1.9911E4,1.9902E4,1.5504E4,1.772E4,1.3331E4,1.5465E4,8.852E3,8.853E3],"tree_param":{"num_deleted":"0","num_feature":"11","num_nodes":"63","size_leaf_vector":"1"}},{"base_weights":[-7.155269E-4,-1.7963235E2,1.583395E2,-2.915181E2,-9.095245E1,8.406714E1,2.8604425E2,-3.613834E2,-2.4560846E2,-1.3749489E2,-4.824263E1,3.9092472E1,1.3578828E2,2.3994382E2,3.680692E2,-4.1631656E2,-3.3385147E2,-2.7168683E2,-2.1599709E2,-1.617868E2,-1.1316778E2,-6.7542595E1,-2.769075E1,1.6016554E1,6.427489E1,1.12290955E2,1.6174466E2,2.1422194E2,2.7294464E2,3.4194513E2,4.20112E2,-2.2506773E1,-1.9530027E1,-1.7583027E1,-1.5797141E1,-1.4266962E1,-1.2813245E1,-9.9200945E0,-1.1324634E1,-8.768463E0,-7.406742E0,-5.257857E0,-6.55934E0,-3.0032182E0,-4.353025E0,-1.0382746E0,-2.394632E0,2.2096646E-1,1.4856459E0,2.6733077E0,3.8617122E0,5.0407577E0,6.243625E0,7.513556E0,8.723802E0,1.0083344E1,1.1493746E1,1.2954282E1,1.4560981E1,1.63406E1,1.8144596E1,2.019994E1,2.2590338E1],"categories":[],"categories_nodes":[],"categories_segments":[],"categories_sizes":[],"default_left":[0,0,0,0,0,0,0,0,0,0,0,0,0,0,0,0,0,0,0,0,0,0,0,0,0,0,0,0,0,0,0,0,0,0,0,0,0,0,0,0,0,0,0,0,0,0,0,0,0,0,0,0,0,0,0,0,0,0,0,0,0,0,0],"id":5,"left_children":[1,3,5,7,9,11,13,15,17,19,21,23,25,27,29,31,33,35,37,39,41,43,45,47,49,51,53,55,57,59,61,-1,-1,-1,-1,-1,-1,-1,-1,-1,-1,-1,-1,-1,-1,-1,-1,-1,-1,-1,-1,-1,-1,-1,-1,-1,-1,-1,-1,-1,-1,-1,-1],"loss_changes":[1.6114188E10,2.6334382E9,2.8559631E9,3.759749E8,2.9431488E8,4.4286144E8,4.18261E8,6.967091E7,5.44064E7,4.1780864E7,3.0621936E7,5.917885E7,5.391859E7,5.9890944E7,5.3433856E7,1.261184E7,9.337088E6,7.560192E6,5.90528E6,6.441856E6,5.043424E6,5.78616E6,5.228498E6,8.442138E6,6.800768E6,6.650048E6,6.013184E6,7.603072E6,7.483392E6,7.821312E6,5.874176E6,0E0,0E0,0E0,0E0,0E0,0E0,0E0,0E0,0E0,0E0,0E0,0E0,0E0,0E0,0E0,0E0,0E0,0E0,0E0,0E0,0E0,0E0,0E0,0E0,0E0,0E0,0E0,0E0,0E0,0E0,0E0,0E0],"parents":[2147483647,0,0,1,1,2,2,3,3,4,4,5,5,6,6,7,7,8,8,9,9,10,10,11,11,12,12,13,13,14,14,15,15,16,16,17,17,18,18,19,19,20,20,21,21,22,22,23,23,24,24,25,25,26,26,27,27,28,28,29,29,30,30],"right_children":[2,4,6,8,10,12,14,16,18,20,22,24,26,28,30,32,34,36,38,40,42,44,46,48,50,52,54,56,58,60,62,-1,-1,-1,-1,-1,-1,-1,-1,-1,-1,-1,-1,-1,-1,-1,-1,-1,-1,-1,-1,-1,-1,-1,-1,-1,-1,-1,-1,-1,-1,-1,-1],"split_conditions":[1.6299241E3,1.3968162E3,1.8849465E3,1.2491125E3,1.5238463E3,1.7566189E3,2.0411312E3,1.156685E3,1.3277075E3,1.4654152E3,1.5811476E3,1.6948562E3,1.8203103E3,1.9587777E3,2.1401267E3,1.101377E3,1.2098394E3,1.291925E3,2.5881904E-1,1.432519E3,8.660254E-1,8.660254E-1,8.660254E-1,1.6653088E3,1.7278715E3,1.7889862E3,1.8534227E3,1.9236782E3,2.0009503E3,2.0923477E3,2.2010002E3,-2.2506773E1,-1.9530027E1,-1.7583027E1,-1.5797141E1,-1.4266962E1,-1.2813245E1,-9.9200945E0,-1.1324634E1,-8.768463E0,-7.406742E0,-5.257857E0,-6.55934E0,-3.0032182E0,-4.353025E0,-1.0382746E0,-2.394632E0,2.2096646E-1,1.4856459E0,2.6733077E0,3.8617122E0,5.0407577E0,6.243625E0,7.513556E0,8.723802E0,1.0083344E1,1.1493746E1,1.2954282E1,1.4560981E1,1.63406E1,1.8144596E1,2.019994E1,2.2590338E1],"split_indices":[4,4,4,4,4,4,4,4,4,4,4,4,4,4,4,4,4,4,9,4,9,9,9,4,4,4,4,4,4,4,4,0,0,0,0,0,0,0,0,0,0,0,0,0,0,0,0,0,0,0,0,0,0,0,0,0,0,0,0,0,0,0,0],"split_type":[0,0,0,0,0,0,0,0,0,0,0,0,0,0,0,0,0,0,0,0,0,0,0,0,0,0,0,0,0,0,0,0,0,0,0,0,0,0,0,0,0,0,0,0,0,0,0,0,0,0,0,0,0,0,0,0,0,0,0,0,0,0,0],"sum_hessian":[5.66535E5,2.65422E5,3.01113E5,1.17351E5,1.48071E5,1.90391E5,1.10722E5,4.6521E4,7.083E4,7.0851E4,7.722E4,1.01842E5,8.8549E4,7.0896E4,3.9826E4,1.5508E4,3.1013E4,3.764E4,3.319E4,3.5437E4,3.5414E4,3.9817E4,3.7403E4,5.3148E4,4.8694E4,4.649E4,4.2059E4,3.9863E4,3.1033E4,2.6541E4,1.3285E4,6.663E3,8.845E3,1.5503E4,1.551E4,1.9919E4,1.7721E4,1.2438E4,2.0752E4,1.7734E4,1.7703E4,2.4539E4,1.0875E4,2.8802E4,1.1015E4,2.7862E4,9.541E3,2.8783E4,2.4365E4,2.6564E4,2.213E4,2.4337E4,2.2153E4,2.2156E4,1.9903E4,2.2159E4,1.7704E4,1.7692E4,1.3341E4,1.5457E4,1.1084E4,8.853E3,4.432E3],"tree_param":{"num_deleted":"0","num_feature":"11","num_nodes":"63","size_leaf_vector":"1"}},{"base_weights":[-6.9002324E-4,-1.7752554E2,1.446315E2,-2.8436957E2,-9.8040596E1,6.919052E1,2.6260074E2,-3.5499893E2,-2.4682495E2,-1.4837001E2,-6.0823193E1,2.5150345E1,1.15303925E2,2.1462193E2,3.402273E2,-4.1790585E2,-3.3555573E2,-2.7320508E2,-2.2039282E2,-1.7307167E2,-1.2979646E2,-8.627118E1,-4.2164997E1,2.5892022E0,4.5986202E1,9.15234E1,1.390557E2,1.890145E2,2.434215E2,3.1073395E2,3.8809494E2,-2.3064337E1,-2.014528E1,-1.7951061E1,-1.6042803E1,-1.4438636E1,-1.3053538E1,-1.1702836E1,-1.0334455E1,-7.972759E0,-9.278014E0,-5.8957953E0,-7.181801E0,-3.8750541E0,-5.0907664E0,-2.6337E0,-1.469421E0,4.4005543E-1,-9.0047044E-1,1.7002791E0,2.8429265E0,3.979955E0,5.11737E0,6.2856455E0,7.5563097E0,8.733409E0,1.0022999E1,1.1512055E1,1.30112705E1,1.4732556E1,1.647348E1,1.8192871E1,2.060553E1],"categories":[],"categories_nodes":[],"categories_segments":[],"categories_sizes":[],"default_left":[0,0,0,0,0,0,0,0,0,0,0,0,0,0,0,0,0,0,0,0,0,0,0,0,0,0,0,0,0,0,0,0,0,0,0,0,0,0,0,0,0,0,0,0,0,0,0,0,0,0,0,0,0,0,0,0,0,0,0,0,0,0,0],"id":6,"left_children":[1,3,5,7,9,11,13,15,17,19,21,23,25,27,29,31,33,35,37,39,41,43,45,47,49,51,53,55,57,59,61,-1,-1,-1,-1,-1,-1,-1,-1,-1,-1,-1,-1,-1,-1,-1,-1,-1,-1,-1,-1,-1,-1,-1,-1,-1,-1,-1,-1,-1,-1,-1,-1],"loss_changes":[1.4546502E10,2.1599247E9,2.7783557E9,2.87274E8,2.731621E8,3.8671488E8,4.5316557E8,4.5343744E7,4.9106944E7,2.8333824E7,3.9799104E7,4.5789936E7,5.2478336E7,5.5280896E7,6.505267E7,4.84096E6,9.352192E6,6.317824E6,6.390144E6,4.374592E6,5.737536E6,4.79584E6,6.490032E6,5.9858315E6,6.586648E6,5.960608E6,7.39872E6,6.370816E6,7.542784E6,8.192768E6,9.558272E6,0E0,0E0,0E0,0E0,0E0,0E0,0E0,0E0,0E0,0E0,0E0,0E0,0E0,0E0,0E0,0E0,0E0,0E0,0E0,0E0,0E0,0E0,0E0,0E0,0E0,0E0,0E0,0E0,0E0,0E0,0E0,0E0],"parents":[2147483647,0,0,1,1,2,2,3,3,4,4,5,5,6,6,7,7,8,8,9,9,10,10,11,11,12,12,13,13,14,14,15,15,16,16,17,17,18,18,19,19,20,20,21,21,22,22,23,23,24,24,25,25,26,26,27,27,28,28,29,29,30,30],"right_children":[2,4,6,8,10,12,14,16,18,20,22,24,26,28,30,32,34,36,38,40,42,44,46,48,50,52,54,56,58,60,62,-1,-1,-1,-1,-1,-1,-1,-1,-1,-1,-1,-1,-1,-1,-1,-1,-1,-1,-1,-1,-1,-1,-1,-1,-1,-1,-1,-1,-1,-1,-1,-1],"split_conditions":[1.6158511E3,1.3782814E3,1.8672098E3,1.2279269E3,1.4954446E3,1.7363402E3,2.0201385E3,1.1199581E3,1.3052919E3,1.432519E3,1.5508364E3,1.6738406E3,1.7981189E3,1.9363887E3,2.1187327E3,1.0479531E3,1.1734138E3,1.264127E3,1.3411038E3,5E-1,5E-1,7.0710677E-1,1.5870076E3,8.660254E-1,1.7029232E3,1.7654875E3,1.8300752E3,1.8962065E3,1.9782281E3,2.0697515E3,2.1662563E3,-2.3064337E1,-2.014528E1,-1.7951061E1,-1.6042803E1,-1.4438636E1,-1.3053538E1,-1.1702836E1,-1.0334455E1,-7.972759E0,-9.278014E0,-5.8957953E0,-7.181801E0,-3.8750541E0,-5.0907664E0,-2.6337E0,-1.469421E0,4.4005543E-1,-9.0047044E-1,1.7002791E0,2.8429265E0,3.979955E0,5.11737E0,6.2856455E0,7.5563097E0,8.733409E0,1.0022999E1,1.1512055E1,1.30112705E1,1.4732556E1,1.647348E1,1.8192871E1,2.060553E1],"split_indices":[4,4,4,4,4,4,4,4,4,4,4,4,4,4,4,4,4,4,4,9,9,9,4,9,4,4,4,4,4,4,4,0,0,0,0,0,0,0,0,0,0,0,0,0,0,0,0,0,0,0,0,0,0,0,0,0,0,0,0,0,0,0,0],"split_type":[0,0,0,0,0,0,0,0,0,0,0,0,0,0,0,0,0,0,0,0,0,0,0,0,0,0,0,0,0,0,0,0,0,0,0,0,0,0,0,0,0,0,0,0,0,0,0,0,0,0,0,0,0,0,0,0,0,0,0,0,0,0,0],"sum_hessian":[5.66535E5,2.54345E5,3.1219E5,1.08494E5,1.45851E5,1.90423E5,1.21767E5,3.7641E4,7.0853E4,6.1997E4,8.3854E4,9.7405E4,9.3018E4,7.5266E4,4.6501E4,8.863E3,2.8778E4,3.5438E4,3.5415E4,2.6591E4,3.5406E4,3.5465E4,4.8389E4,4.6769E4,5.0636E4,4.6493E4,4.6525E4,3.9861E4,3.5405E4,2.8796E4,1.7705E4,2.239E3,6.624E3,1.1039E4,1.7739E4,1.5473E4,1.9965E4,1.7693E4,1.7722E4,1.2754E4,1.3837E4,1.9077E4,1.6329E4,2.2692E4,1.2773E4,2.6542E4,2.1847E4,3.5935E4,1.0834E4,2.41E4,2.6536E4,2.2142E4,2.4351E4,2.2125E4,2.44E4,1.7725E4,2.2136E4,1.9883E4,1.5522E4,1.554E4,1.3256E4,8.852E3,8.853E3],"tree_param":{"num_deleted":"0","num_feature":"11","num_nodes":"63","size_leaf_vector":"1"}},{"base_weights":[-9.1782014E-4,-1.5964493E2,1.4520259E2,-2.6150418E2,-7.864169E1,7.898846E1,2.600243E2,-3.2378912E2,-2.185934E2,-1.2136956E2,-4.0515797E1,3.8304276E1,1.24784035E2,2.1809851E2,3.32291E2,-3.758941E2,-2.9942465E2,-2.4202641E2,-1.9195381E2,-1.4299075E2,-9.968358E1,-5.7600193E1,-2.1258171E1,1.8501463E1,6.0911263E1,1.03497025E2,1.4830138E2,1.9478255E2,2.463493E2,3.0867908E2,3.793293E2,-2.0930834E1,-1.7933859E1,-1.5875243E1,-1.4176697E1,-1.2712928E1,-1.1411704E1,-8.784954E0,-1.0087147E1,-6.5203514E0,-7.7965965E0,-4.6203914E0,-5.806407E0,-2.486354E0,-3.6863594E0,-7.443732E-1,-2.0093095E0,3.7471333E-1,1.4859443E0,3.320502E0,2.0022929E0,4.6541357E0,5.744775E0,6.94192E0,8.061086E0,9.234296E0,1.0456673E1,1.1693801E1,1.3139838E1,1.4750335E1,1.6380201E1,1.8221174E1,2.0432981E1],"categories":[],"categories_nodes":[],"categories_segments":[],"categories_sizes":[],"default_left":[0,0,0,0,0,0,0,0,0,0,0,0,0,0,0,0,0,0,0,0,0,0,0,0,0,0,0,0,0,0,0,0,0,0,0,0,0,0,0,0,0,0,0,0,0,0,0,0,0,0,0,0,0,0,0,0,0,0,0,0,0,0,0],"id":7,"left_children":[1,3,5,7,9,11,13,15,17,19,21,23,25,27,29,31,33,35,37,39,41,43,45,47,49,51,53,55,57,59,61,-1,-1,-1,-1,-1,-1,-1,-1,-1,-1,-1,-1,-1,-1,-1,-1,-1,-1,-1,-1,-1,-1,-1,-1,-1,-1,-1,-1,-1,-1,-1,-1],"loss_changes":[1.3133005E10,2.2264438E9,2.2555853E9,3.191291E8,2.4485728E8,3.505902E8,3.284137E8,6.1325824E7,4.395853E7,3.3163008E7,2.6132288E7,4.461032E7,4.424141E7,4.5003776E7,4.365363E7,1.0659328E7,9.100288E6,6.060288E6,5.097984E6,5.676416E6,4.182208E6,5.326512E6,4.501552E6,6.559202E6,5.325568E6,5.464416E6,5.029056E6,5.262592E6,6.059904E6,6.385408E6,5.065216E6,0E0,0E0,0E0,0E0,0E0,0E0,0E0,0E0,0E0,0E0,0E0,0E0,0E0,0E0,0E0,0E0,0E0,0E0,0E0,0E0,0E0,0E0,0E0,0E0,0E0,0E0,0E0,0E0,0E0,0E0,0E0,0E0],"parents":[2147483647,0,0,1,1,2,2,3,3,4,4,5,5,6,6,7,7,8,8,9,9,10,10,11,11,12,12,13,13,14,14,15,15,16,16,17,17,18,18,19,19,20,20,21,21,22,22,23,23,24,24,25,25,26,26,27,27,28,28,29,29,30,30],"right_children":[2,4,6,8,10,12,14,16,18,20,22,24,26,28,30,32,34,36,38,40,42,44,46,48,50,52,54,56,58,60,62,-1,-1,-1,-1,-1,-1,-1,-1,-1,-1,-1,-1,-1,-1,-1,-1,-1,-1,-1,-1,-1,-1,-1,-1,-1,-1,-1,-1,-1,-1,-1,-1],"split_conditions":[1.6354844E3,1.4011696E3,1.8887786E3,1.2544028E3,1.5274441E3,1.7595708E3,2.0411312E3,1.156685E3,1.3321941E3,1.4692323E3,1.5870076E3,1.7001509E3,1.8236284E3,1.9587777E3,2.1401267E3,1.0789592E3,1.2098394E3,1.296446E3,2.5881904E-1,5E-1,8.660254E-1,7.0710677E-1,8.660254E-1,1.668263E3,8.660254E-1,1.7920167E3,1.8601835E3,1.9278812E3,2.0009503E3,2.0923477E3,2.2010002E3,-2.0930834E1,-1.7933859E1,-1.5875243E1,-1.4176697E1,-1.2712928E1,-1.1411704E1,-8.784954E0,-1.0087147E1,-6.5203514E0,-7.7965965E0,-4.6203914E0,-5.806407E0,-2.486354E0,-3.6863594E0,-7.443732E-1,-2.0093095E0,3.7471333E-1,1.4859443E0,3.320502E0,2.0022929E0,4.6541357E0,5.744775E0,6.94192E0,8.061086E0,9.234296E0,1.0456673E1,1.1693801E1,1.3139838E1,1.4750335E1,1.6380201E1,1.8221174E1,2.0432981E1],"split_indices":[4,4,4,4,4,4,4,4,4,4,4,4,4,4,4,4,4,4,9,9,9,9,9,4,9,4,4,4,4,4,4,0,0,0,0,0,0,0,0,0,0,0,0,0,0,0,0,0,0,0,0,0,0,0,0,0,0,0,0,0,0,0,0],"split_type":[0,0,0,0,0,0,0,0,0,0,0,0,0,0,0,0,0,0,0,0,0,0,0,0,0,0,0,0,0,0,0,0,0,0,0,0,0,0,0,0,0,0,0,0,0,0,0,0,0,0,0,0,0,0,0,0,0,0,0,0,0,0,0],"sum_hessian":[5.66535E5,2.69849E5,2.96686E5,1.19531E5,1.50318E5,1.88178E5,1.08508E5,4.8745E4,7.0786E4,7.0876E4,7.9442E4,9.9655E4,8.8523E4,6.8682E4,3.9826E4,1.5508E4,3.3237E4,3.7638E4,3.3148E4,3.5477E4,3.5399E4,4.2091E4,3.7351E4,5.3127E4,4.6528E4,4.6479E4,4.2044E4,3.7649E4,3.1033E4,2.6541E4,1.3285E4,4.421E3,1.1087E4,1.5503E4,1.7734E4,1.9901E4,1.7737E4,1.2495E4,2.0653E4,1.8015E4,1.7462E4,2.4564E4,1.0835E4,2.8297E4,1.3794E4,2.7952E4,9.399E3,2.6819E4,2.6308E4,3.6815E4,9.713E3,2.4312E4,2.2167E4,2.4303E4,1.7741E4,2.2141E4,1.5508E4,1.7692E4,1.3341E4,1.5457E4,1.1084E4,8.853E3,4.432E3],"tree_param":{"num_deleted":"0","num_feature":"11","num_nodes":"63","size_leaf_vector":"1"}},{"base_weights":[-8.7052805E-4,-1.527069E2,1.3700954E2,-2.4843369E2,-7.559135E1,7.319841E1,2.4528697E2,-3.0760675E2,-2.0766676E2,-1.1411935E2,-3.815875E1,3.4649834E1,1.16441605E2,2.039438E2,3.1271805E2,-3.52399E2,-2.8196182E2,-2.299283E2,-1.8235898E2,-1.3460782E2,-9.2312805E1,-5.2650818E1,-1.98223E1,1.4976002E1,5.510989E1,9.628831E1,1.3870398E2,1.8365182E2,2.3200548E2,2.9066406E2,3.6037738E2,-1.9331396E1,-1.6580727E1,-1.4829139E1,-1.3361791E1,-1.2077443E1,-1.0841277E1,-9.69246E0,-8.458518E0,-5.9255624E0,-7.1903315E0,-4.215277E0,-5.290926E0,-2.302772E0,-3.5145118E0,-6.8948275E-1,-1.8820317E0,1.0356233E0,-2.6483256E-1,2.3149436E0,3.3920922E0,4.271699E0,5.3062167E0,6.3822417E0,7.431605E0,8.577979E0,9.786142E0,1.1025575E1,1.2268298E1,1.3768516E1,1.5420299E1,1.7310629E1,1.9412485E1],"categories":[],"categories_nodes":[],"categories_segments":[],"categories_sizes":[],"default_left":[0,0,0,0,0,0,0,0,0,0,0,0,0,0,0,0,0,0,0,0,0,0,0,0,0,0,0,0,0,0,0,0,0,0,0,0,0,0,0,0,0,0,0,0,0,0,0,0,0,0,0,0,0,0,0,0,0,0,0,0,0,0,0],"id":8,"left_children":[1,3,5,7,9,11,13,15,17,19,21,23,25,27,29,31,33,35,37,39,41,43,45,47,49,51,53,55,57,59,61,-1,-1,-1,-1,-1,-1,-1,-1,-1,-1,-1,-1,-1,-1,-1,-1,-1,-1,-1,-1,-1,-1,-1,-1,-1,-1,-1,-1,-1,-1,-1,-1],"loss_changes":[1.1853433E10,1.9777418E9,2.0631603E9,2.8803738E8,2.1399386E8,3.1319725E8,3.0836685E8,5.5502336E7,3.9673344E7,3.2608704E7,1.9997808E7,3.998616E7,3.9663744E7,3.888128E7,4.3700736E7,1.1971328E7,6.28352E6,5.469312E6,4.859904E6,5.495552E6,3.787776E6,4.874856E6,3.570188E6,5.891279E6,5.447376E6,4.918528E6,4.523456E6,5.651328E6,4.150784E6,7.387392E6,4.574592E6,0E0,0E0,0E0,0E0,0E0,0E0,0E0,0E0,0E0,0E0,0E0,0E0,0E0,0E0,0E0,0E0,0E0,0E0,0E0,0E0,0E0,0E0,0E0,0E0,0E0,0E0,0E0,0E0,0E0,0E0,0E0,0E0],"parents":[2147483647,0,0,1,1,2,2,3,3,4,4,5,5,6,6,7,7,8,8,9,9,10,10,11,11,12,12,13,13,14,14,15,15,16,16,17,17,18,18,19,19,20,20,21,21,22,22,23,23,24,24,25,25,26,26,27,27,28,28,29,29,30,30],"right_children":[2,4,6,8,10,12,14,16,18,20,22,24,26,28,30,32,34,36,38,40,42,44,46,48,50,52,54,56,58,60,62,-1,-1,-1,-1,-1,-1,-1,-1,-1,-1,-1,-1,-1,-1,-1,-1,-1,-1,-1,-1,-1,-1,-1,-1,-1,-1,-1,-1,-1,-1,-1,-1],"split_conditions":[1.6329806E3,1.4011696E3,1.8849465E3,1.2544028E3,1.5310149E3,1.7566189E3,2.034008E3,1.1654067E3,1.3321941E3,1.4732928E3,1.5898472E3,1.6948562E3,1.8203103E3,1.9587777E3,2.1401267E3,1.101377E3,1.2162878E3,1.296446E3,1.3691074E3,6.123234E-17,7.0710677E-1,8.660254E-1,8.660254E-1,8.660254E-1,1.7307775E3,1.7861285E3,1.8501163E3,1.919534E3,1.9950513E3,2.0845212E3,2.2010002E3,-1.9331396E1,-1.6580727E1,-1.4829139E1,-1.3361791E1,-1.2077443E1,-1.0841277E1,-9.69246E0,-8.458518E0,-5.9255624E0,-7.1903315E0,-4.215277E0,-5.290926E0,-2.302772E0,-3.5145118E0,-6.8948275E-1,-1.8820317E0,1.0356233E0,-2.6483256E-1,2.3149436E0,3.3920922E0,4.271699E0,5.3062167E0,6.3822417E0,7.431605E0,8.577979E0,9.786142E0,1.1025575E1,1.2268298E1,1.3768516E1,1.5420299E1,1.7310629E1,1.9412485E1],"split_indices":[4,4,4,4,4,4,4,4,4,4,4,4,4,4,4,4,4,4,4,9,9,9,9,9,4,4,4,4,4,4,4,0,0,0,0,0,0,0,0,0,0,0,0,0,0,0,0,0,0,0,0,0,0,0,0,0,0,0,0,0,0,0,0],"split_type":[0,0,0,0,0,0,0,0,0,0,0,0,0,0,0,0,0,0,0,0,0,0,0,0,0,0,0,0,0,0,0,0,0,0,0,0,0,0,0,0,0,0,0,0,0,0,0,0,0,0,0,0,0,0,0,0,0,0,0,0,0,0,0],"sum_hessian":[5.66535E5,2.67921E5,2.98614E5,1.19531E5,1.4839E5,1.87892E5,1.10722E5,4.8745E4,7.0786E4,7.312E4,7.527E4,9.9343E4,8.8549E4,6.8651E4,4.2071E4,1.7724E4,3.1021E4,3.7638E4,3.3148E4,3.7686E4,3.5434E4,4.2037E4,3.3233E4,5.0649E4,4.8694E4,4.649E4,4.2059E4,3.9863E4,2.8788E4,2.8786E4,1.3285E4,6.663E3,1.1061E4,1.5518E4,1.5503E4,1.9901E4,1.7737E4,1.7678E4,1.547E4,1.373E4,2.3956E4,2.2268E4,1.3166E4,3.061E4,1.1427E4,2.4834E4,8.399E3,3.9478E4,1.1171E4,2.8792E4,1.9902E4,2.2124E4,2.4366E4,1.9929E4,2.213E4,1.9952E4,1.9911E4,1.5522E4,1.3266E4,1.5504E4,1.3282E4,8.853E3,4.432E3],"tree_param":{"num_deleted":"0","num_feature":"11","num_nodes":"63","size_leaf_vector":"1"}},{"base_weights":[-8.26789E-4,-1.5333736E2,1.2318253E2,-2.4557025E2,-8.621615E1,5.7637833E1,2.237066E2,-3.0737207E2,-2.1470822E2,-1.2989507E2,-5.400903E1,2.0007717E1,9.698392E1,1.8119162E2,2.8930316E2,-3.5897903E2,-2.900638E2,-2.3714476E2,-1.9220212E2,-1.5147383E2,-1.1372917E2,-7.622186E1,-3.78571E1,5.057068E-1,3.7717827E1,7.681471E1,1.171249E2,1.5966583E2,2.053712E2,2.6170358E2,3.29273E2,-1.9953358E1,-1.7270653E1,-1.5249893E1,-1.375119E1,-1.2536143E1,-1.1324622E1,-8.534287E0,-9.986826E0,-6.9738197E0,-8.117495E0,-5.159423E0,-6.288035E0,-3.4325845E0,-4.4750123E0,-1.5511909E0,-2.6438212E0,3.029457E-1,-8.8458776E-1,2.155074E0,8.884782E-1,4.0920553E0,2.8015914E0,5.2907767E0,6.3694105E0,7.44362E0,8.522773E0,9.650921E0,1.0884135E1,1.2300971E1,1.3752803E1,1.5470443E1,1.7692335E1],"categories":[],"categories_nodes":[],"categories_segments":[],"categories_sizes":[],"default_left":[0,0,0,0,0,0,0,0,0,0,0,0,0,0,0,0,0,0,0,0,0,0,0,0,0,0,0,0,0,0,0,0,0,0,0,0,0,0,0,0,0,0,0,0,0,0,0,0,0,0,0,0,0,0,0,0,0,0,0,0,0,0,0],"id":9,"left_children":[1,3,5,7,9,11,13,15,17,19,21,23,25,27,29,31,33,35,37,39,41,43,45,47,49,51,53,55,57,59,61,-1,-1,-1,-1,-1,-1,-1,-1,-1,-1,-1,-1,-1,-1,-1,-1,-1,-1,-1,-1,-1,-1,-1,-1,-1,-1,-1,-1,-1,-1,-1,-1],"loss_changes":[1.0701189E10,1.5623429E9,2.0698921E9,2.0242432E8,2.0547302E8,2.8156147E8,3.4553395E8,3.1092992E7,3.5581184E7,2.1540736E7,3.0156416E7,3.3575584E7,3.7720256E7,3.900032E7,5.334989E7,4.13312E6,5.539072E6,4.849024E6,5.572864E6,3.349376E6,4.432608E6,3.527488E6,4.9898E6,4.6764125E6,5.467552E6,4.830912E6,5.330496E6,4.511424E6,5.176448E6,5.705984E6,9.163008E6,0E0,0E0,0E0,0E0,0E0,0E0,0E0,0E0,0E0,0E0,0E0,0E0,0E0,0E0,0E0,0E0,0E0,0E0,0E0,0E0,0E0,0E0,0E0,0E0,0E0,0E0,0E0,0E0,0E0,0E0,0E0,0E0],"parents":[2147483647,0,0,1,1,2,2,3,3,4,4,5,5,6,6,7,7,8,8,9,9,10,10,11,11,12,12,13,13,14,14,15,15,16,16,17,17,18,18,19,19,20,20,21,21,22,22,23,23,24,24,25,25,26,26,27,27,28,28,29,29,30,30],"right_children":[2,4,6,8,10,12,14,16,18,20,22,24,26,28,30,32,34,36,38,40,42,44,46,48,50,52,54,56,58,60,62,-1,-1,-1,-1,-1,-1,-1,-1,-1,-1,-1,-1,-1,-1,-1,-1,-1,-1,-1,-1,-1,-1,-1,-1,-1,-1,-1,-1,-1,-1,-1,-1],"split_conditions":[1.6133644E3,1.3737197E3,1.8636595E3,1.2221085E3,1.4917898E3,1.7335369E3,2.013328E3,1.1199581E3,1.300856E3,1.428216E3,1.5475629E3,1.6707579E3,1.7951464E3,1.9320201E3,2.1093335E3,1.0477291E3,1.181232E3,1.2594142E3,-1.8369701E-16,5E-1,5E-1,7.0710677E-1,7.0710677E-1,8.660254E-1,8.660254E-1,8.660254E-1,1.82691E3,1.8962065E3,1.9683794E3,2.055649E3,2.1662563E3,-1.9953358E1,-1.7270653E1,-1.5249893E1,-1.375119E1,-1.2536143E1,-1.1324622E1,-8.534287E0,-9.986826E0,-6.9738197E0,-8.117495E0,-5.159423E0,-6.288035E0,-3.4325845E0,-4.4750123E0,-1.5511909E0,-2.6438212E0,3.029457E-1,-8.8458776E-1,2.155074E0,8.884782E-1,4.0920553E0,2.8015914E0,5.2907767E0,6.3694105E0,7.44362E0,8.522773E0,9.650921E0,1.0884135E1,1.2300971E1,1.3752803E1,1.5470443E1,1.7692335E1],"split_indices":[4,4,4,4,4,4,4,4,4,4,4,4,4,4,4,5,4,4,9,9,9,9,9,9,9,9,4,4,4,4,4,0,0,0,0,0,0,0,0,0,0,0,0,0,0,0,0,0,0,0,0,0,0,0,0,0,0,0,0,0,0,0,0],"split_type":[0,0,0,0,0,0,0,0,0,0,0,0,0,0,0,0,0,0,0,0,0,0,0,0,0,0,0,0,0,0,0,0,0,0,0,0,0,0,0,0,0,0,0,0,0,0,0,0,0,0,0,0,0,0,0,0,0,0,0,0,0,0,0],"sum_hessian":[5.66535E5,2.52378E5,3.14157E5,1.06298E5,1.4608E5,1.90169E5,1.23988E5,3.5388E4,7.091E4,6.1992E4,8.4088E4,9.7208E4,9.2961E4,7.5241E4,4.8747E4,8.863E3,2.6525E4,3.5486E4,3.5424E4,2.6533E4,3.5459E4,3.5394E4,4.8694E4,4.6266E4,5.0942E4,4.646E4,4.6501E4,3.9825E4,3.5416E4,2.8858E4,1.9889E4,2.205E3,6.658E3,1.3261E4,1.3264E4,1.5551E4,1.9935E4,9.218E3,2.6206E4,1.2649E4,1.3884E4,1.8926E4,1.6533E4,2.2562E4,1.2832E4,3.3478E4,1.5216E4,3.5451E4,1.0815E4,4.0111E4,1.0831E4,3.74E4,9.06E3,2.215E4,2.4351E4,1.9946E4,1.9879E4,1.772E4,1.7696E4,1.3315E4,1.5543E4,1.1036E4,8.853E3],"tree_param":{"num_deleted":"0","num_feature":"11","num_nodes":"63","size_leaf_vector":"1"}},{"base_weights":[-1.0533159E-3,-1.3585759E2,1.2553665E2,-2.228145E2,-6.538684E1,6.86689E1,2.2297899E2,-2.7764728E2,-1.8620703E2,-1.0058572E2,-3.2084103E1,3.4552418E1,1.0803677E2,1.8699161E2,2.850098E2,-3.278551E2,-2.5877786E2,-2.0653815E2,-1.6182031E2,-1.1889363E2,-8.111204E1,-4.580216E1,-1.56950245E1,1.7588688E1,5.393425E1,8.989319E1,1.2713144E2,1.670381E2,2.1116823E2,2.6721536E2,3.311151E2,-1.8936699E1,-1.5869147E1,-1.3972716E1,-1.2319279E1,-9.1954565E0,-1.0636832E1,-7.3664193E0,-8.53273E0,-5.4828496E0,-6.6097183E0,-3.7390707E0,-4.77579E0,-1.9949219E0,-3.0906377E0,-5.103802E-1,-1.6007566E0,1.1369114E0,-4.0619466E-2,2.945635E0,1.7506815E0,4.722027E0,3.483879E0,5.9030395E0,6.859011E0,7.9167113E0,8.970484E0,1.0021862E1,1.1265926E1,1.2747569E1,1.4333466E1,1.6104874E1,1.8304228E1],"categories":[],"categories_nodes":[],"categories_segments":[],"categories_sizes":[],"default_left":[0,0,0,0,0,0,0,0,0,0,0,0,0,0,0,0,0,0,0,0,0,0,0,0,0,0,0,0,0,0,0,0,0,0,0,0,0,0,0,0,0,0,0,0,0,0,0,0,0,0,0,0,0,0,0,0,0,0,0,0,0,0,0],"id":10,"left_children":[1,3,5,7,9,11,13,15,17,19,21,23,25,27,29,31,33,35,37,39,41,43,45,47,49,51,53,55,57,59,61,-1,-1,-1,-1,-1,-1,-1,-1,-1,-1,-1,-1,-1,-1,-1,-1,-1,-1,-1,-1,-1,-1,-1,-1,-1,-1,-1,-1,-1,-1,-1,-1],"loss_changes":[9.662492E9,1.6672727E9,1.631595E9,2.4422093E8,1.761671E8,2.4972531E8,2.4196966E8,4.576077E7,3.605197E7,2.6001728E7,1.7361288E7,3.2750736E7,2.9850432E7,3.295872E7,3.223552E7,6.48384E6,8.740352E6,5.389568E6,4.129216E6,4.552896E6,3.194144E6,3.961512E6,3.150692E6,5.034925E6,4.369344E6,4.037824E6,3.751616E6,3.912448E6,4.487168E6,6.497152E6,2.901248E6,0E0,0E0,0E0,0E0,0E0,0E0,0E0,0E0,0E0,0E0,0E0,0E0,0E0,0E0,0E0,0E0,0E0,0E0,0E0,0E0,0E0,0E0,0E0,0E0,0E0,0E0,0E0,0E0,0E0,0E0,0E0,0E0],"parents":[2147483647,0,0,1,1,2,2,3,3,4,4,5,5,6,6,7,7,8,8,9,9,10,10,11,11,12,12,13,13,14,14,15,15,16,16,17,17,18,18,19,19,20,20,21,21,22,22,23,23,24,24,25,25,26,26,27,27,28,28,29,29,30,30],"right_children":[2,4,6,8,10,12,14,16,18,20,22,24,26,28,30,32,34,36,38,40,42,44,46,48,50,52,54,56,58,60,62,-1,-1,-1,-1,-1,-1,-1,-1,-1,-1,-1,-1,-1,-1,-1,-1,-1,-1,-1,-1,-1,-1,-1,-1,-1,-1,-1,-1,-1,-1,-1,-1],"split_conditions":[1.6382649E3,1.405601E3,1.8887786E3,1.2544028E3,1.5344252E3,1.7624946E3,2.0411312E3,1.1468268E3,1.3366418E3,1.4771278E3,1.5928363E3,1.7029232E3,1.8236284E3,1.9587777E3,2.1530957E3,1.0479531E3,1.1959124E3,6.123234E-17,2.5881904E-1,7.0710677E-1,8.660254E-1,8.660254E-1,8.660254E-1,8.660254E-1,8.660254E-1,8.660254E-1,1.8567695E3,1.9278812E3,2.0009503E3,2.1008645E3,2.2250112E3,-1.8936699E1,-1.5869147E1,-1.3972716E1,-1.2319279E1,-9.1954565E0,-1.0636832E1,-7.3664193E0,-8.53273E0,-5.4828496E0,-6.6097183E0,-3.7390707E0,-4.77579E0,-1.9949219E0,-3.0906377E0,-5.103802E-1,-1.6007566E0,1.1369114E0,-4.0619466E-2,2.945635E0,1.7506815E0,4.722027E0,3.483879E0,5.9030395E0,6.859011E0,7.9167113E0,8.970484E0,1.0021862E1,1.1265926E1,1.2747569E1,1.4333466E1,1.6104874E1,1.8304228E1],"split_indices":[4,4,4,4,4,4,4,4,4,4,4,4,4,4,4,4,4,9,9,9,9,9,9,9,9,9,4,4,4,4,4,0,0,0,0,0,0,0,0,0,0,0,0,0,0,0,0,0,0,0,0,0,0,0,0,0,0,0,0,0,0,0,0],"split_type":[0,0,0,0,0,0,0,0,0,0,0,0,0,0,0,0,0,0,0,0,0,0,0,0,0,0,0,0,0,0,0,0,0,0,0,0,0,0,0,0,0,0,0,0,0,0,0,0,0,0,0,0,0,0,0,0,0,0,0,0,0,0,0],"sum_hessian":[5.66535E5,2.72085E5,2.9445E5,1.21791E5,1.50294E5,1.85942E5,1.08508E5,4.8745E4,7.3046E4,7.3062E4,7.7232E4,9.962E4,8.6322E4,6.8682E4,3.9826E4,1.3293E4,3.5452E4,3.9815E4,3.3231E4,3.7645E4,3.5417E4,4.2037E4,3.5195E4,5.3129E4,4.6491E4,4.4278E4,4.2044E4,3.7649E4,3.1033E4,2.876E4,1.1066E4,2.239E3,1.1054E4,1.3245E4,2.2207E4,8.594E3,3.1221E4,1.2619E4,2.0612E4,2.2244E4,1.5401E4,2.4625E4,1.0792E4,3.0725E4,1.1312E4,2.6345E4,8.85E3,4.1511E4,1.1618E4,3.6798E4,9.693E3,3.6132E4,8.146E3,2.2131E4,1.9913E4,2.2141E4,1.5508E4,1.7692E4,1.3341E4,1.7683E4,1.1077E4,8.838E3,2.228E3],"tree_param":{"num_deleted":"0","num_feature":"11","num_nodes":"63","size_leaf_vector":"1"}},{"base_weights":[-9.94951E-4,-1.2806711E2,1.20195404E2,-2.1167775E2,-6.1287125E1,6.695677E1,2.1336325E2,-2.6801334E2,-1.7944978E2,-9.657398E1,-3.065448E1,3.5204662E1,1.0538186E2,1.78936E2,2.7076703E2,-3.17276E2,-2.515264E2,-2.025472E2,-1.5761012E2,-1.1647737E2,-8.108466E1,-4.6920097E1,-1.6755154E1,1.8988953E1,5.4504383E1,8.894998E1,1.23588E2,1.6106999E2,2.0218678E2,2.5144698E2,3.092558E2,-1.802293E1,-1.5315508E1,-1.3394401E1,-1.186135E1,-1.0723377E1,-9.597324E0,-8.499915E0,-7.259525E0,-5.106057E0,-6.2295365E0,-4.5343432E0,-3.5729368E0,-2.0628843E0,-3.097757E0,-5.369218E-1,-1.5303503E0,1.1950468E0,6.4620785E-2,2.9630575E0,1.8157715E0,4.661755E0,3.4860132E0,6.369025E0,5.0722594E0,7.5831466E0,8.580174E0,9.662131E0,1.0817595E1,1.2009147E1,1.3351981E1,1.4832538E1,1.6719326E1],"categories":[],"categories_nodes":[],"categories_segments":[],"categories_sizes":[],"default_left":[0,0,0,0,0,0,0,0,0,0,0,0,0,0,0,0,0,0,0,0,0,0,0,0,0,0,0,0,0,0,0,0,0,0,0,0,0,0,0,0,0,0,0,0,0,0,0,0,0,0,0,0,0,0,0,0,0,0,0,0,0,0,0],"id":11,"left_children":[1,3,5,7,9,11,13,15,17,19,21,23,25,27,29,31,33,35,37,39,41,43,45,47,49,51,53,55,57,59,61,-1,-1,-1,-1,-1,-1,-1,-1,-1,-1,-1,-1,-1,-1,-1,-1,-1,-1,-1,-1,-1,-1,-1,-1,-1,-1,-1,-1,-1,-1,-1,-1],"loss_changes":[8.720876E9,1.5314545E9,1.4495357E9,2.2089011E8,1.64829E8,2.2689882E8,2.0977613E8,3.558963E7,3.892915E7,2.179968E7,1.845376E7,3.186744E7,2.511872E7,2.743808E7,2.9229568E7,4.700032E6,7.455232E6,4.550656E6,6.007936E6,3.547264E6,3.652528E6,3.189592E6,3.667998E6,4.811224E6,4.012144E6,3.61344E6,3.286464E6,3.595328E6,3.446144E6,4.341504E6,3.713664E6,0E0,0E0,0E0,0E0,0E0,0E0,0E0,0E0,0E0,0E0,0E0,0E0,0E0,0E0,0E0,0E0,0E0,0E0,0E0,0E0,0E0,0E0,0E0,0E0,0E0,0E0,0E0,0E0,0E0,0E0,0E0,0E0],"parents":[2147483647,0,0,1,1,2,2,3,3,4,4,5,5,6,6,7,7,8,8,9,9,10,10,11,11,12,12,13,13,14,14,15,15,16,16,17,17,18,18,19,19,20,20,21,21,22,22,23,23,24,24,25,25,26,26,27,27,28,28,29,29,30,30],"right_children":[2,4,6,8,10,12,14,16,18,20,22,24,26,28,30,32,34,36,38,40,42,44,46,48,50,52,54,56,58,60,62,-1,-1,-1,-1,-1,-1,-1,-1,-1,-1,-1,-1,-1,-1,-1,-1,-1,-1,-1,-1,-1,-1,-1,-1,-1,-1,-1,-1,-1,-1,-1,-1],"split_conditions":[1.6408893E3,1.405601E3,1.8924701E3,1.2438972E3,1.5310149E3,1.7685786E3,2.0411312E3,1.1348204E3,1.323239E3,1.4654152E3,1.5841138E3,1.7084202E3,1.8300752E3,1.9634972E3,2.1401267E3,1.0477291E3,1.1959124E3,1.2828823E3,1.364515E3,6.123234E-17,1.4990111E3,8.660254E-1,7.0710677E-1,8.660254E-1,8.660254E-1,8.660254E-1,8.660254E-1,1.9278812E3,2.0070503E3,2.0923477E3,2.2010002E3,-1.802293E1,-1.5315508E1,-1.3394401E1,-1.186135E1,-1.0723377E1,-9.597324E0,-8.499915E0,-7.259525E0,-5.106057E0,-6.2295365E0,-4.5343432E0,-3.5729368E0,-2.0628843E0,-3.097757E0,-5.369218E-1,-1.5303503E0,1.1950468E0,6.4620785E-2,2.9630575E0,1.8157715E0,4.661755E0,3.4860132E0,6.369025E0,5.0722594E0,7.5831466E0,8.580174E0,9.662131E0,1.0817595E1,1.2009147E1,1.3351981E1,1.4832538E1,1.6719326E1],"split_indices":[4,4,4,4,4,4,4,4,4,4,4,4,4,4,4,5,4,4,4,9,4,9,9,9,9,9,9,4,4,4,5,0,0,0,0,0,0,0,0,0,0,0,0,0,0,0,0,0,0,0,0,0,0,0,0,0,0,0,0,0,0,0,0],"split_type":[0,0,0,0,0,0,0,0,0,0,0,0,0,0,0,0,0,0,0,0,0,0,0,0,0,0,0,0,0,0,0,0,0,0,0,0,0,0,0,0,0,0,0,0,0,0,0,0,0,0,0,0,0,0,0,0,0,0,0,0,0,0,0],"sum_hessian":[5.66535E5,2.74288E5,2.92247E5,1.21791E5,1.52497E5,1.85981E5,1.06266E5,4.4306E4,7.7485E4,7.086E4,8.1637E4,1.01838E5,8.4143E4,6.644E4,3.9826E4,1.1087E4,3.3219E4,3.7638E4,3.9847E4,3.0997E4,3.9863E4,3.7611E4,4.4026E4,5.5346E4,4.6492E4,4.4242E4,3.9901E4,3.7593E4,2.8847E4,2.6541E4,1.3285E4,2.213E3,8.874E3,1.5451E4,1.7768E4,1.7671E4,1.9967E4,1.9917E4,1.993E4,1.1217E4,1.978E4,1.9935E4,1.9928E4,2.7335E4,1.0276E4,3.07E4,1.3326E4,4.332E4,1.2026E4,3.6845E4,9.647E3,3.6164E4,8.078E3,3.4046E4,5.855E3,1.9899E4,1.7694E4,1.7727E4,1.112E4,1.5457E4,1.1084E4,8.89E3,4.395E3],"tree_param":{"num_deleted":"0","num_feature":"11","num_nodes":"63","size_leaf_vector":"1"}},{"base_weights":[-9.6905994E-4,-1.3255435E2,1.0485391E2,-2.1065149E2,-7.486721E1,4.874069E1,1.9189073E2,-2.6376895E2,-1.8412622E2,-1.1021851E2,-4.639862E1,1.7158598E1,8.405386E1,1.5545253E2,2.4811139E2,-3.084363E2,-2.4878856E2,-2.0473543E2,-1.6589732E2,-1.275356E2,-9.403378E1,-6.3640965E1,-3.2577526E1,-1.0872008E0,3.2543774E1,6.82441E1,1.02340416E2,1.3710184E2,1.7606543E2,2.2436444E2,2.82502E2,-1.7143225E1,-1.4839276E1,-1.3199832E1,-1.1893296E1,-9.201097E0,-1.0478664E1,-7.5153427E0,-8.732267E0,-5.612517E0,-6.7377167E0,-4.3581305E0,-5.4171367E0,-2.7997963E0,-3.7003582E0,-1.3327099E0,-2.2797153E0,1.8252099E-1,-8.241792E-1,1.8576578E0,7.7091026E-1,3.625983E0,2.5224054E0,5.3182445E0,4.115423E0,6.486407E0,7.43361E0,8.331599E0,9.408248E0,1.0629878E1,1.19040165E1,1.3440796E1,1.5478449E1],"categories":[],"categories_nodes":[],"categories_segments":[],"categories_sizes":[],"default_left":[0,0,0,0,0,0,0,0,0,0,0,0,0,0,0,0,0,0,0,0,0,0,0,0,0,0,0,0,0,0,0,0,0,0,0,0,0,0,0,0,0,0,0,0,0,0,0,0,0,0,0,0,0,0,0,0,0,0,0,0,0,0,0],"id":12,"left_children":[1,3,5,7,9,11,13,15,17,19,21,23,25,27,29,31,33,35,37,39,41,43,45,47,49,51,53,55,57,59,61,-1,-1,-1,-1,-1,-1,-1,-1,-1,-1,-1,-1,-1,-1,-1,-1,-1,-1,-1,-1,-1,-1,-1,-1,-1,-1,-1,-1,-1,-1,-1,-1],"loss_changes":[7.874336E9,1.1272259E9,1.544843E9,1.4953267E8,1.4482074E8,2.144959E8,2.5381683E8,2.3298816E7,2.647168E7,1.7932864E7,1.8990368E7,2.8503138E7,2.6216384E7,2.834176E7,3.9497216E7,3.047936E6,4.0928E6,3.140096E6,5.004544E6,3.344768E6,3.217152E6,2.790208E6,3.406992E6,3.388838E6,4.34558E6,3.688192E6,3.349568E6,3.301632E6,3.88608E6,4.404992E6,6.953216E6,0E0,0E0,0E0,0E0,0E0,0E0,0E0,0E0,0E0,0E0,0E0,0E0,0E0,0E0,0E0,0E0,0E0,0E0,0E0,0E0,0E0,0E0,0E0,0E0,0E0,0E0,0E0,0E0,0E0,0E0,0E0,0E0],"parents":[2147483647,0,0,1,1,2,2,3,3,4,4,5,5,6,6,7,7,8,8,9,9,10,10,11,11,12,12,13,13,14,14,15,15,16,16,17,17,18,18,19,19,20,20,21,21,22,22,23,23,24,24,25,25,26,26,27,27,28,28,29,29,30,30],"right_children":[2,4,6,8,10,12,14,16,18,20,22,24,26,28,30,32,34,36,38,40,42,44,46,48,50,52,54,56,58,60,62,-1,-1,-1,-1,-1,-1,-1,-1,-1,-1,-1,-1,-1,-1,-1,-1,-1,-1,-1,-1,-1,-1,-1,-1,-1,-1,-1,-1,-1,-1,-1,-1],"split_conditions":[1.6105332E3,1.3737197E3,1.8636595E3,1.2221085E3,1.4954446E3,1.7363402E3,2.013328E3,1.1199581E3,1.296446E3,1.4370214E3,1.5508364E3,1.668263E3,1.8012673E3,1.9320201E3,2.1093335E3,1.0477291E3,1.1734138E3,6.123234E-17,2.5881904E-1,6.123234E-17,8.660254E-1,5E-1,7.0710677E-1,8.660254E-1,8.660254E-1,8.660254E-1,8.660254E-1,1.9037365E3,1.9733931E3,2.0626409E3,2.1826177E3,-1.7143225E1,-1.4839276E1,-1.3199832E1,-1.1893296E1,-9.201097E0,-1.0478664E1,-7.5153427E0,-8.732267E0,-5.612517E0,-6.7377167E0,-4.3581305E0,-5.4171367E0,-2.7997963E0,-3.7003582E0,-1.3327099E0,-2.2797153E0,1.8252099E-1,-8.241792E-1,1.8576578E0,7.7091026E-1,3.625983E0,2.5224054E0,5.3182445E0,4.115423E0,6.486407E0,7.43361E0,8.331599E0,9.408248E0,1.0629878E1,1.19040165E1,1.3440796E1,1.5478449E1],"split_indices":[4,4,4,4,4,4,4,4,4,4,4,4,4,4,4,5,4,9,9,9,9,9,9,9,9,9,9,4,4,4,4,0,0,0,0,0,0,0,0,0,0,0,0,0,0,0,0,0,0,0,0,0,0,0,0,0,0,0,0,0,0,0,0],"split_type":[0,0,0,0,0,0,0,0,0,0,0,0,0,0,0,0,0,0,0,0,0,0,0,0,0,0,0,0,0,0,0,0,0,0,0,0,0,0,0,0,0,0,0,0,0,0,0,0,0,0,0,0,0,0,0,0,0,0,0,0,0,0,0],"sum_hessian":[5.66535E5,2.50218E5,3.16317E5,1.06298E5,1.4392E5,1.92329E5,1.23988E5,3.5388E4,7.091E4,6.4193E4,7.9727E4,1.01532E5,9.0797E4,7.5241E4,4.8747E4,8.863E3,2.6525E4,3.3258E4,3.7652E4,3.0995E4,3.3198E4,3.5465E4,4.4262E4,4.645E4,5.5082E4,4.8709E4,4.2088E4,3.9825E4,3.5416E4,2.8858E4,1.9889E4,2.205E3,6.658E3,1.1039E4,1.5486E4,6.334E3,2.6924E4,1.3566E4,2.4086E4,9.969E3,2.1026E4,2.2452E4,1.0746E4,2.043E4,1.5035E4,3.043E4,1.3832E4,3.5523E4,1.0927E4,4.3396E4,1.1686E4,3.9261E4,9.448E3,3.5029E4,7.059E3,2.4361E4,1.5464E4,1.9942E4,1.5474E4,1.5577E4,1.3281E4,1.3246E4,6.643E3],"tree_param":{"num_deleted":"0","num_feature":"11","num_nodes":"63","size_leaf_vector":"1"}},{"base_weights":[-1.1337872E-3,-1.1652258E2,1.0767006E2,-1.8988597E2,-5.5077793E1,5.8904583E1,1.912292E2,-2.3655315E2,-1.5733955E2,-8.508977E1,-2.7544819E1,2.8887209E1,9.193501E1,1.6035936E2,2.4443903E2,-2.7318945E2,-2.169653E2,-1.7384517E2,-1.349274E2,-9.975865E1,-6.8454704E1,-3.870433E1,-1.2531064E1,1.3529866E1,4.4217323E1,7.5516754E1,1.0833435E2,1.4325206E2,1.8108737E2,2.290364E2,2.8434814E2,-1.5507875E1,-1.3044591E1,-1.1476598E1,-1.0294211E1,-7.663469E0,-8.985633E0,-6.2086167E0,-7.226368E0,-4.63867E0,-5.684441E0,-3.134347E0,-4.0784793E0,-1.6813669E0,-2.6247742E0,-3.5616812E-1,-1.2504544E0,8.961983E-1,-1.073488E-1,2.4242723E0,1.4034629E0,3.9741046E0,2.9016416E0,4.9799633E0,5.853017E0,6.7466025E0,7.629224E0,8.5244665E0,9.581728E0,1.0930573E1,1.2278614E1,1.3811614E1,1.5792557E1],"categories":[],"categories_nodes":[],"categories_segments":[],"categories_sizes":[],"default_left":[0,0,0,0,0,0,0,0,0,0,0,0,0,0,0,0,0,0,0,0,0,0,0,0,0,0,0,0,0,0,0,0,0,0,0,0,0,0,0,0,0,0,0,0,0,0,0,0,0,0,0,0,0,0,0,0,0,0,0,0,0,0,0],"id":13,"left_children":[1,3,5,7,9,11,13,15,17,19,21,23,25,27,29,31,33,35,37,39,41,43,45,47,49,51,53,55,57,59,61,-1,-1,-1,-1,-1,-1,-1,-1,-1,-1,-1,-1,-1,-1,-1,-1,-1,-1,-1,-1,-1,-1,-1,-1,-1,-1,-1,-1,-1,-1,-1,-1],"loss_changes":[7.1078753E9,1.2264745E9,1.199789E9,1.8817382E8,1.223495E8,1.8435066E8,1.7804493E8,3.6262144E7,2.69152E7,1.7253984E7,1.2938312E7,2.2933496E7,2.3795072E7,2.422656E7,2.4158464E7,7.65504E6,4.389504E6,4.940672E6,3.11232E6,3.609536E6,2.486848E6,3.093116E6,2.2217325E6,3.353276E6,3.353312E6,3.04504E6,3.316544E6,2.820544E6,3.305856E6,4.690048E6,2.394112E6,0E0,0E0,0E0,0E0,0E0,0E0,0E0,0E0,0E0,0E0,0E0,0E0,0E0,0E0,0E0,0E0,0E0,0E0,0E0,0E0,0E0,0E0,0E0,0E0,0E0,0E0,0E0,0E0,0E0,0E0,0E0,0E0],"parents":[2147483647,0,0,1,1,2,2,3,3,4,4,5,5,6,6,7,7,8,8,9,9,10,10,11,11,12,12,13,13,14,14,15,15,16,16,17,17,18,18,19,19,20,20,21,21,22,22,23,23,24,24,25,25,26,26,27,27,28,28,29,29,30,30],"right_children":[2,4,6,8,10,12,14,16,18,20,22,24,26,28,30,32,34,36,38,40,42,44,46,48,50,52,54,56,58,60,62,-1,-1,-1,-1,-1,-1,-1,-1,-1,-1,-1,-1,-1,-1,-1,-1,-1,-1,-1,-1,-1,-1,-1,-1,-1,-1,-1,-1,-1,-1,-1,-1],"split_conditions":[1.6382649E3,1.41011E3,1.8887786E3,1.2594142E3,1.5344252E3,1.7595708E3,2.0411312E3,1.1654067E3,1.3457454E3,1.4808492E3,1.5958635E3,1.6974976E3,1.8203103E3,1.9587777E3,2.1530957E3,1.0788904E3,1.2162878E3,6.123234E-17,5E-1,8.660254E-1,8.660254E-1,8.660254E-1,7.0710677E-1,8.660254E-1,8.660254E-1,8.660254E-1,1.8534227E3,1.9236782E3,1.9950513E3,2.1008645E3,2.2250112E3,-1.5507875E1,-1.3044591E1,-1.1476598E1,-1.0294211E1,-7.663469E0,-8.985633E0,-6.2086167E0,-7.226368E0,-4.63867E0,-5.684441E0,-3.134347E0,-4.0784793E0,-1.6813669E0,-2.6247742E0,-3.5616812E-1,-1.2504544E0,8.961983E-1,-1.073488E-1,2.4242723E0,1.4034629E0,3.9741046E0,2.9016416E0,4.9799633E0,5.853017E0,6.7466025E0,7.629224E0,8.5244665E0,9.581728E0,1.0930573E1,1.2278614E1,1.3811614E1,1.5792557E1],"split_indices":[4,4,4,4,4,4,4,4,4,4,4,4,4,4,4,5,4,9,9,9,9,9,9,9,9,9,4,4,4,4,4,0,0,0,0,0,0,0,0,0,0,0,0,0,0,0,0,0,0,0,0,0,0,0,0,0,0,0,0,0,0,0,0],"split_type":[0,0,0,0,0,0,0,0,0,0,0,0,0,0,0,0,0,0,0,0,0,0,0,0,0,0,0,0,0,0,0,0,0,0,0,0,0,0,0,0,0,0,0,0,0,0,0,0,0,0,0,0,0,0,0,0,0,0,0,0,0,0,0],"sum_hessian":[5.66535E5,2.72085E5,2.9445E5,1.2401E5,1.48075E5,1.85942E5,1.08508E5,5.0939E4,7.3071E4,7.0843E4,7.7232E4,9.7419E4,8.8523E4,6.8682E4,3.9826E4,1.7724E4,3.3215E4,4.2061E4,3.101E4,3.7633E4,3.321E4,4.4298E4,3.2934E4,4.8671E4,4.8748E4,4.425E4,4.4273E4,3.7649E4,3.1033E4,2.876E4,1.1066E4,4.394E3,1.333E4,1.5518E4,1.7697E4,9.363E3,3.2698E4,1.4658E4,1.6352E4,2.509E4,1.2543E4,2.3086E4,1.0124E4,3.2391E4,1.1907E4,2.2982E4,9.952E3,3.8015E4,1.0656E4,3.8549E4,1.0199E4,3.6055E4,8.195E3,2.2156E4,2.2117E4,1.9945E4,1.7704E4,1.5522E4,1.5511E4,1.7683E4,1.1077E4,8.838E3,2.228E3],"tree_param":{"num_deleted":"0","num_feature":"11","num_nodes":"63","size_leaf_vector":"1"}},{"base_weights":[-1.0517071E-3,-1.1685794E2,9.6919334E1,-1.8890852E2,-6.416214E1,4.747709E1,1.7556097E2,-2.3392273E2,-1.6275293E2,-9.560201E1,-3.708412E1,1.8656897E1,7.901666E1,1.4345763E2,2.259634E2,-2.787948E2,-2.2104869E2,-1.7945401E2,-1.4490372E2,-1.1212189E2,-8.007055E1,-5.167135E1,-2.4033215E1,3.2780688E0,3.3424366E1,6.520925E1,9.662562E1,1.2736936E2,1.6271443E2,2.080795E2,2.6172287E2,-1.5518727E1,-1.3394714E1,-1.1796551E1,-1.0492835E1,-8.015255E0,-9.210816E0,-6.5505557E0,-7.646431E0,-4.910913E0,-5.945328E0,-3.487379E0,-4.370889E0,-2.291674E0,-3.1275537E0,-9.376648E-1,-1.7918522E0,-2.4584977E-1,5.642396E-1,1.8809551E0,8.8367414E-1,2.8494687E0,3.7075775E0,5.0166125E0,3.880397E0,5.972417E0,6.8617377E0,7.7419395E0,8.721608E0,9.753086E0,1.1053984E1,1.2563297E1,1.4373851E1],"categories":[],"categories_nodes":[],"categories_segments":[],"categories_sizes":[],"default_left":[0,0,0,0,0,0,0,0,0,0,0,0,0,0,0,0,0,0,0,0,0,0,0,0,0,0,0,0,0,0,0,0,0,0,0,0,0,0,0,0,0,0,0,0,0,0,0,0,0,0,0,0,0,0,0,0,0,0,0,0,0,0,0],"id":14,"left_children":[1,3,5,7,9,11,13,15,17,19,21,23,25,27,29,31,33,35,37,39,41,43,45,47,49,51,53,55,57,59,61,-1,-1,-1,-1,-1,-1,-1,-1,-1,-1,-1,-1,-1,-1,-1,-1,-1,-1,-1,-1,-1,-1,-1,-1,-1,-1,-1,-1,-1,-1,-1,-1],"loss_changes":[6.4165837E9,9.7515674E8,1.2041011E9,1.2755328E8,1.2628627E8,1.7283632E8,1.9326848E8,2.272E7,2.0331776E7,1.7568576E7,1.5170184E7,2.2566084E7,2.2042816E7,2.2525184E7,2.9468928E7,2.636672E6,4.915712E6,3.084032E6,3.601792E6,3.078272E6,2.654352E6,2.37624E6,2.619426E6,3.194514E6,3.345776E6,3.72048E6,2.773024E6,3.02944E6,2.931264E6,5.034752E6,3.808832E6,0E0,0E0,0E0,0E0,0E0,0E0,0E0,0E0,0E0,0E0,0E0,0E0,0E0,0E0,0E0,0E0,0E0,0E0,0E0,0E0,0E0,0E0,0E0,0E0,0E0,0E0,0E0,0E0,0E0,0E0,0E0,0E0],"parents":[2147483647,0,0,1,1,2,2,3,3,4,4,5,5,6,6,7,7,8,8,9,9,10,10,11,11,12,12,13,13,14,14,15,15,16,16,17,17,18,18,19,19,20,20,21,21,22,22,23,23,24,24,25,25,26,26,27,27,28,28,29,29,30,30],"right_children":[2,4,6,8,10,12,14,16,18,20,22,24,26,28,30,32,34,36,38,40,42,44,46,48,50,52,54,56,58,60,62,-1,-1,-1,-1,-1,-1,-1,-1,-1,-1,-1,-1,-1,-1,-1,-1,-1,-1,-1,-1,-1,-1,-1,-1,-1,-1,-1,-1,-1,-1,-1,-1],"split_conditions":[1.6190636E3,1.3782814E3,1.8705546E3,1.2333502E3,1.506213E3,1.7420768E3,2.0201385E3,1.1199581E3,1.3097314E3,1.445567E3,1.5632656E3,1.6791472E3,1.8104999E3,1.9407494E3,2.1287468E3,1.0479531E3,1.181232E3,6.123234E-17,2.5881904E-1,6.123234E-17,6.123234E-17,7.0710677E-1,7.0710677E-1,1.6490532E3,8.660254E-1,1.7774358E3,8.660254E-1,1.9075728E3,1.9835957E3,2.0697515E3,2.2010002E3,-1.5518727E1,-1.3394714E1,-1.1796551E1,-1.0492835E1,-8.015255E0,-9.210816E0,-6.5505557E0,-7.646431E0,-4.910913E0,-5.945328E0,-3.487379E0,-4.370889E0,-2.291674E0,-3.1275537E0,-9.376648E-1,-1.7918522E0,-2.4584977E-1,5.642396E-1,1.8809551E0,8.8367414E-1,2.8494687E0,3.7075775E0,5.0166125E0,3.880397E0,5.972417E0,6.8617377E0,7.7419395E0,8.721608E0,9.753086E0,1.1053984E1,1.2563297E1,1.4373851E1],"split_indices":[4,4,4,4,4,4,4,4,4,4,4,4,4,4,4,4,4,9,9,9,9,9,9,4,9,4,9,4,4,4,4,0,0,0,0,0,0,0,0,0,0,0,0,0,0,0,0,0,0,0,0,0,0,0,0,0,0,0,0,0,0,0,0],"split_type":[0,0,0,0,0,0,0,0,0,0,0,0,0,0,0,0,0,0,0,0,0,0,0,0,0,0,0,0,0,0,0,0,0,0,0,0,0,0,0,0,0,0,0,0,0,0,0,0,0,0,0,0,0,0,0,0,0,0,0,0,0,0,0],"sum_hessian":[5.66535E5,2.5685E5,3.09685E5,1.08494E5,1.48356E5,1.90147E5,1.19538E5,3.9858E4,6.8636E4,6.8643E4,7.9713E4,9.9361E4,9.0786E4,7.3037E4,4.6501E4,8.863E3,3.0995E4,3.5435E4,3.3201E4,3.3248E4,3.5395E4,3.7634E4,4.2079E4,4.8676E4,5.0685E4,5.0899E4,3.9887E4,3.9813E4,3.3224E4,3.1021E4,1.548E4,2.239E3,6.624E3,1.3261E4,1.7734E4,7.092E3,2.8343E4,1.2188E4,2.1013E4,1.0929E4,2.2319E4,1.4739E4,2.0656E4,2.4509E4,1.3125E4,2.9083E4,1.2996E4,2.4056E4,2.462E4,4.002E4,1.0665E4,2.654E4,2.4359E4,3.3363E4,6.524E3,2.2119E4,1.7694E4,1.9912E4,1.3312E4,1.554E4,1.5481E4,1.1048E4,4.432E3],"tree_param":{"num_deleted":"0","num_feature":"11","num_nodes":"63","size_leaf_vector":"1"}},{"base_weights":[-1.1228485E-3,-1.1368674E2,8.992862E1,-1.819414E2,-6.508615E1,4.10766E1,1.6347084E2,-2.2419785E2,-1.579791E2,-9.642902E1,-4.0509926E1,1.3341026E1,7.006945E1,1.3243022E2,2.1280312E2,-2.6487137E2,-2.1162743E2,-1.7715938E2,-1.4515956E2,-1.13809784E2,-8.4129036E1,-5.711608E1,-2.9197191E1,-1.7993194E0,2.5868544E1,5.525333E1,8.4872925E1,1.1683417E2,1.509444E2,1.9236293E2,2.4240506E2,-1.3266601E1,1.3788019E1,-1.1206947E1,-1.0043307E1,-7.97257E0,-9.067121E0,-6.359541E0,-7.5545726E0,-5.348482E0,-6.3398857E0,-3.892327E0,-4.847514E0,-2.2565799E0,-3.1123784E0,-1.2334373E0,-2.093183E0,1.571216E-1,-6.8924147E-1,1.4923053E0,5.584798E-1,2.9554975E0,1.9705849E0,4.425773E0,3.3603017E0,5.491285E0,6.324554E0,7.08639E0,8.006541E0,9.11075E0,1.0209606E1,1.15140085E1,1.3325515E1],"categories":[],"categories_nodes":[],"categories_segments":[],"categories_sizes":[],"default_left":[0,0,0,0,0,0,0,0,0,0,0,0,0,0,0,0,0,0,0,0,0,0,0,0,0,0,0,0,0,0,0,0,0,0,0,0,0,0,0,0,0,0,0,0,0,0,0,0,0,0,0,0,0,0,0,0,0,0,0,0,0,0,0],"id":15,"left_children":[1,3,5,7,9,11,13,15,17,19,21,23,25,27,29,31,33,35,37,39,41,43,45,47,49,51,53,55,57,59,61,-1,-1,-1,-1,-1,-1,-1,-1,-1,-1,-1,-1,-1,-1,-1,-1,-1,-1,-1,-1,-1,-1,-1,-1,-1,-1,-1,-1,-1,-1,-1,-1],"loss_changes":[5.792196E9,8.299848E8,1.1364116E9,1.0519578E8,1.1256755E8,1.5283933E8,1.931922E8,1.8967296E7,1.6204032E7,1.368416E7,1.5383632E7,1.842659E7,2.0358624E7,2.2291712E7,2.9264896E7,2.574208E6,3.650048E6,1.824768E6,4.150464E6,2.295648E6,2.993568E6,2.027272E6,2.790732E6,2.6058422E6,3.10648E6,2.82672E6,2.960928E6,2.779136E6,2.885376E6,3.278592E6,5.507328E6,0E0,0E0,0E0,0E0,0E0,0E0,0E0,0E0,0E0,0E0,0E0,0E0,0E0,0E0,0E0,0E0,0E0,0E0,0E0,0E0,0E0,0E0,0E0,0E0,0E0,0E0,0E0,0E0,0E0,0E0,0E0,0E0],"parents":[2147483647,0,0,1,1,2,2,3,3,4,4,5,5,6,6,7,7,8,8,9,9,10,10,11,11,12,12,13,13,14,14,15,15,16,16,17,17,18,18,19,19,20,20,21,21,22,22,23,23,24,24,25,25,26,26,27,27,28,28,29,29,30,30],"right_children":[2,4,6,8,10,12,14,16,18,20,22,24,26,28,30,32,34,36,38,40,42,44,46,48,50,52,54,56,58,60,62,-1,-1,-1,-1,-1,-1,-1,-1,-1,-1,-1,-1,-1,-1,-1,-1,-1,-1,-1,-1,-1,-1,-1,-1,-1,-1,-1,-1,-1,-1,-1,-1],"split_conditions":[1.6105332E3,1.3691074E3,1.8601835E3,1.2279269E3,1.4917898E3,1.7307775E3,2.013328E3,1.1199581E3,1.2875936E3,1.4237797E3,1.5443759E3,1.6653088E3,1.7920167E3,1.9320201E3,2.1093335E3,1.6840924E3,1.181232E3,6.123234E-17,-1.8369701E-16,8.660254E-1,8.660254E-1,1.4574645E3,8.660254E-1,7.0710677E-1,8.660254E-1,8.660254E-1,8.660254E-1,1.900125E3,1.9683794E3,2.0626409E3,2.1826177E3,-1.3266601E1,1.3788019E1,-1.1206947E1,-1.0043307E1,-7.97257E0,-9.067121E0,-6.359541E0,-7.5545726E0,-5.348482E0,-6.3398857E0,-3.892327E0,-4.847514E0,-2.2565799E0,-3.1123784E0,-1.2334373E0,-2.093183E0,1.571216E-1,-6.8924147E-1,1.4923053E0,5.584798E-1,2.9554975E0,1.9705849E0,4.425773E0,3.3603017E0,5.491285E0,6.324554E0,7.08639E0,8.006541E0,9.11075E0,1.0209606E1,1.15140085E1,1.3325515E1],"split_indices":[4,4,4,4,4,4,4,4,4,4,4,4,4,4,4,5,4,9,9,9,9,6,9,9,9,9,9,4,4,4,5,0,0,0,0,0,0,0,0,0,0,0,0,0,0,0,0,0,0,0,0,0,0,0,0,0,0,0,0,0,0,0,0],"split_type":[0,0,0,0,0,0,0,0,0,0,0,0,0,0,0,0,0,0,0,0,0,0,0,0,0,0,0,0,0,0,0,0,0,0,0,0,0,0,0,0,0,0,0,0,0,0,0,0,0,0,0,0,0,0,0,0,0,0,0,0,0,0,0],"sum_hessian":[5.66535E5,2.50218E5,3.16317E5,1.04061E5,1.46157E5,1.90068E5,1.26249E5,3.7641E4,6.642E4,6.4229E4,8.1928E4,9.7144E4,9.2924E4,7.7502E4,4.8747E4,8.863E3,2.8778E4,2.6583E4,3.9837E4,2.66E4,3.7629E4,3.3189E4,4.8739E4,4.3987E4,5.3157E4,4.6454E4,4.647E4,4.2086E4,3.5416E4,2.8858E4,1.9889E4,8.858E3,5E0,1.3261E4,1.5517E4,5.117E3,2.1466E4,9.915E3,2.9922E4,1.7454E4,9.146E3,2.5278E4,1.2351E4,9.965E3,2.3224E4,3.5914E4,1.2825E4,3.1148E4,1.2839E4,4.1832E4,1.1325E4,3.7348E4,9.106E3,3.851E4,7.96E3,2.4423E4,1.7663E4,1.772E4,1.7696E4,1.5577E4,1.3281E4,1.3268E4,6.621E3],"tree_param":{"num_deleted":"0","num_feature":"11","num_nodes":"63","size_leaf_vector":"1"}},{"base_weights":[-1.0317094E-3,-9.831051E1,9.3893036E1,-1.6288303E2,-4.588373E1,5.1921116E1,1.640032E2,-2.0162213E2,-1.3384822E2,-7.2192566E1,-2.1770195E1,2.8524227E1,8.173099E1,1.3861296E2,2.1178665E2,-2.3780852E2,-1.866699E2,-1.4807822E2,-1.15524216E2,-8.478495E1,-5.705594E1,-3.252428E1,-9.730339E0,1.6303478E1,4.4348377E1,7.0224846E1,9.611559E1,1.23758705E2,1.5765613E2,1.9820042E2,2.4430602E2,-1.3357732E1,-1.1299571E1,-1.0009758E1,-8.857009E0,-6.5181985E0,-7.658395E0,-5.378324E0,-6.292741E0,-3.8248367E0,-4.6907973E0,-2.397348E0,-3.1808662E0,-1.066427E0,-1.8642005E0,-6.8049645E-1,2.0271264E-1,4.7125888E-1,1.2195144E0,2.404918E0,1.4943318E0,3.3580873E0,4.5051064E0,4.967269E0,3.862384E0,5.830375E0,6.6335845E0,7.477296E0,8.419957E0,9.471818E0,1.0518447E1,1.1852355E1,1.3625258E1],"categories":[],"categories_nodes":[],"categories_segments":[],"categories_sizes":[],"default_left":[0,0,0,0,0,0,0,0,0,0,0,0,0,0,0,0,0,0,0,0,0,0,0,0,0,0,0,0,0,0,0,0,0,0,0,0,0,0,0,0,0,0,0,0,0,0,0,0,0,0,0,0,0,0,0,0,0,0,0,0,0,0,0],"id":16,"left_children":[1,3,5,7,9,11,13,15,17,19,21,23,25,27,29,31,33,35,37,39,41,43,45,47,49,51,53,55,57,59,61,-1,-1,-1,-1,-1,-1,-1,-1,-1,-1,-1,-1,-1,-1,-1,-1,-1,-1,-1,-1,-1,-1,-1,-1,-1,-1,-1,-1,-1,-1,-1,-1],"loss_changes":[5.2295936E9,9.369032E8,8.5268096E8,1.3935462E8,9.689971E7,1.2641795E8,1.3150464E8,2.8518912E7,1.8401792E7,1.3899552E7,1.031906E7,1.9637872E7,1.3158944E7,1.9950848E7,1.6388992E7,5.077568E6,4.670208E6,3.49664E6,2.481888E6,2.948032E6,1.968312E6,2.239504E6,2.0118235E6,3.187006E6,2.392832E6,2.667152E6,2.119392E6,2.461888E6,2.578432E6,2.63488E6,1.942912E6,0E0,0E0,0E0,0E0,0E0,0E0,0E0,0E0,0E0,0E0,0E0,0E0,0E0,0E0,0E0,0E0,0E0,0E0,0E0,0E0,0E0,0E0,0E0,0E0,0E0,0E0,0E0,0E0,0E0,0E0,0E0,0E0],"parents":[2147483647,0,0,1,1,2,2,3,3,4,4,5,5,6,6,7,7,8,8,9,9,10,10,11,11,12,12,13,13,14,14,15,15,16,16,17,17,18,18,19,19,20,20,21,21,22,22,23,23,24,24,25,25,26,26,27,27,28,28,29,29,30,30],"right_children":[2,4,6,8,10,12,14,16,18,20,22,24,26,28,30,32,34,36,38,40,42,44,46,48,50,52,54,56,58,60,62,-1,-1,-1,-1,-1,-1,-1,-1,-1,-1,-1,-1,-1,-1,-1,-1,-1,-1,-1,-1,-1,-1,-1,-1,-1,-1,-1,-1,-1,-1,-1,-1],"split_conditions":[1.643901E3,1.41011E3,1.8887786E3,1.264127E3,1.5379045E3,1.771551E3,2.0484973E3,1.156685E3,1.3457454E3,1.4845416E3,1.5958635E3,1.7139631E3,1.8335035E3,1.9634972E3,2.1530957E3,1.0789592E3,1.2098394E3,6.123234E-17,7.0710677E-1,5E-1,-1.8369701E-16,1.4652198E3,7.0710677E-1,1.6818689E3,8.660254E-1,5E-1,8.660254E-1,1.9278812E3,2.0070503E3,2.1008645E3,2.2250112E3,-1.3357732E1,-1.1299571E1,-1.0009758E1,-8.857009E0,-6.5181985E0,-7.658395E0,-5.378324E0,-6.292741E0,-3.8248367E0,-4.6907973E0,-2.397348E0,-3.1808662E0,-1.066427E0,-1.8642005E0,-6.8049645E-1,2.0271264E-1,4.7125888E-1,1.2195144E0,2.404918E0,1.4943318E0,3.3580873E0,4.5051064E0,4.967269E0,3.862384E0,5.830375E0,6.6335845E0,7.477296E0,8.419957E0,9.471818E0,1.0518447E1,1.1852355E1,1.3625258E1],"split_indices":[4,4,4,4,4,4,4,4,4,4,4,4,4,4,4,4,4,9,9,9,9,6,8,4,9,8,9,4,4,4,4,0,0,0,0,0,0,0,0,0,0,0,0,0,0,0,0,0,0,0,0,0,0,0,0,0,0,0,0,0,0,0,0],"split_type":[0,0,0,0,0,0,0,0,0,0,0,0,0,0,0,0,0,0,0,0,0,0,0,0,0,0,0,0,0,0,0,0,0,0,0,0,0,0,0,0,0,0,0,0,0,0,0,0,0,0,0,0,0,0,0,0,0,0,0,0,0,0,0],"sum_hessian":[5.66535E5,2.7676E5,2.89775E5,1.2401E5,1.5275E5,1.81267E5,1.08508E5,5.3114E4,7.0896E4,7.3045E4,7.9705E4,1.01563E5,7.9704E4,7.087E4,3.7638E4,1.5508E4,3.7606E4,3.9886E4,3.101E4,3.9861E4,3.3184E4,4.2096E4,3.7609E4,5.7312E4,4.4251E4,4.4299E4,3.5405E4,3.9835E4,3.1035E4,2.6572E4,1.1066E4,4.421E3,1.1087E4,1.5503E4,2.2103E4,8.932E3,3.0954E4,1.7549E4,1.3461E4,2.081E4,1.9051E4,1.3912E4,1.9272E4,1.2566E4,2.953E4,2.9349E4,8.26E3,3.0976E4,2.6336E4,3.513E4,9.121E3,3.8403E4,5.896E3,3.0212E4,5.193E3,2.2141E4,1.7694E4,1.7727E4,1.3308E4,1.5495E4,1.1077E4,8.838E3,2.228E3],"tree_param":{"num_deleted":"0","num_feature":"11","num_nodes":"63","size_leaf_vector":"1"}},{"base_weights":[-8.832218E-4,-9.866283E1,8.444566E1,-1.5993549E2,-5.2039253E1,4.314656E1,1.5264145E2,-1.990174E2,-1.3672021E2,-7.864245E1,-2.9137651E1,1.8209574E1,7.043667E1,1.2687117E2,1.9737402E2,-2.3401048E2,-1.8645439E2,-1.5229599E2,-1.2108591E2,-9.364865E1,-6.62389E1,-4.1660824E1,-1.7925928E1,5.5094657E0,3.1419195E1,5.7120842E1,8.440283E1,1.1335875E2,1.4515392E2,1.8146136E2,2.2464076E2,-1.3419283E1,-1.1258254E1,-9.85227E0,-8.792484E0,-6.0975957E0,-7.729615E0,-5.451465E0,-6.406532E0,-4.371513E0,-5.269701E0,-3.055009E0,-3.8713205E0,-1.8247648E0,-2.5737321E0,-1.0978174E0,-2.7193883E-1,5.072655E-1,-3.14259E-1,1.7555398E0,8.8111365E-1,2.706101E0,3.7467763E0,4.383966E0,3.359184E0,5.242756E0,6.0489316E0,6.83567E0,7.678224E0,8.5793495E0,9.560608E0,1.0768449E1,1.2382588E1],"categories":[],"categories_nodes":[],"categories_segments":[],"categories_sizes":[],"default_left":[0,0,0,0,0,0,0,0,0,0,0,0,0,0,0,0,0,0,0,0,0,0,0,0,0,0,0,0,0,0,0,0,0,0,0,0,0,0,0,0,0,0,0,0,0,0,0,0,0,0,0,0,0,0,0,0,0,0,0,0,0,0,0],"id":17,"left_children":[1,3,5,7,9,11,13,15,17,19,21,23,25,27,29,31,33,35,37,39,41,43,45,47,49,51,53,55,57,59,61,-1,-1,-1,-1,-1,-1,-1,-1,-1,-1,-1,-1,-1,-1,-1,-1,-1,-1,-1,-1,-1,-1,-1,-1,-1,-1,-1,-1,-1,-1,-1,-1],"loss_changes":[4.72026E9,7.463731E8,8.5971994E8,1.0229837E8,9.03929E7,1.2938464E8,1.3260134E8,1.8272896E7,1.7159424E7,1.2745216E7,1.119336E7,1.6667438E7,1.6858432E7,1.7968256E7,1.8052224E7,3.070208E6,3.305472E6,2.377024E6,2.93504E6,2.221632E6,2.137712E6,1.900044E6,2.117514E6,2.7703698E6,2.477304E6,2.4632E6,2.469664E6,2.660352E6,2.097984E6,2.396544E6,3.036864E6,0E0,0E0,0E0,0E0,0E0,0E0,0E0,0E0,0E0,0E0,0E0,0E0,0E0,0E0,0E0,0E0,0E0,0E0,0E0,0E0,0E0,0E0,0E0,0E0,0E0,0E0,0E0,0E0,0E0,0E0,0E0,0E0],"parents":[2147483647,0,0,1,1,2,2,3,3,4,4,5,5,6,6,7,7,8,8,9,9,10,10,11,11,12,12,13,13,14,14,15,15,16,16,17,17,18,18,19,19,20,20,21,21,22,22,23,23,24,24,25,25,26,26,27,27,28,28,29,29,30,30],"right_children":[2,4,6,8,10,12,14,16,18,20,22,24,26,28,30,32,34,36,38,40,42,44,46,48,50,52,54,56,58,60,62,-1,-1,-1,-1,-1,-1,-1,-1,-1,-1,-1,-1,-1,-1,-1,-1,-1,-1,-1,-1,-1,-1,-1,-1,-1,-1,-1,-1,-1,-1,-1,-1],"split_conditions":[1.6247649E3,1.3874854E3,1.877642E3,1.238827E3,1.5132649E3,1.7478767E3,2.034008E3,1.1348204E3,1.3141995E3,1.4497705E3,1.5693455E3,1.686731E3,1.8104999E3,1.9541027E3,2.1287468E3,1.0479531E3,1.1959124E3,-2.5881904E-1,2.5881904E-1,8.660254E-1,8.660254E-1,7.0710677E-1,7.0710677E-1,7.0710677E-1,8.660254E-1,5E-1,8.660254E-1,1.9115292E3,1.9891866E3,2.0766816E3,2.2010002E3,-1.3419283E1,-1.1258254E1,-9.85227E0,-8.792484E0,-6.0975957E0,-7.729615E0,-5.451465E0,-6.406532E0,-4.371513E0,-5.269701E0,-3.055009E0,-3.8713205E0,-1.8247648E0,-2.5737321E0,-1.0978174E0,-2.7193883E-1,5.072655E-1,-3.14259E-1,1.7555398E0,8.8111365E-1,2.706101E0,3.7467763E0,4.383966E0,3.359184E0,5.242756E0,6.0489316E0,6.83567E0,7.678224E0,8.5793495E0,9.560608E0,1.0768449E1,1.2382588E1],"split_indices":[4,4,4,4,4,4,4,4,4,4,4,4,4,4,4,4,4,9,9,9,9,9,8,9,9,8,9,4,4,4,5,0,0,0,0,0,0,0,0,0,0,0,0,0,0,0,0,0,0,0,0,0,0,0,0,0,0,0,0,0,0,0,0],"split_type":[0,0,0,0,0,0,0,0,0,0,0,0,0,0,0,0,0,0,0,0,0,0,0,0,0,0,0,0,0,0,0,0,0,0,0,0,0,0,0,0,0,0,0,0,0,0,0,0,0,0,0,0,0,0,0,0,0,0,0,0,0,0,0],"sum_hessian":[5.66535E5,2.61276E5,3.05259E5,1.12896E5,1.4838E5,1.90127E5,1.15132E5,4.2057E4,7.0839E4,6.8637E4,7.9743E4,9.9351E4,9.0776E4,7.3061E4,4.2071E4,1.1087E4,3.097E4,3.5464E4,3.5375E4,3.1045E4,3.7592E4,3.7662E4,4.2081E4,5.0656E4,4.8695E4,4.6483E4,4.4293E4,4.2032E4,3.1029E4,2.6591E4,1.548E4,2.239E3,8.848E3,1.5451E4,1.5519E4,2.514E3,3.295E4,1.3077E4,2.2298E4,2.0326E4,1.0719E4,2.5782E4,1.181E4,2.469E4,1.2972E4,3.181E4,1.0271E4,3.6364E4,1.4292E4,3.841E4,1.0285E4,3.9803E4,6.68E3,3.7195E4,7.098E3,1.9899E4,2.2133E4,1.553E4,1.5499E4,1.3258E4,1.3333E4,1.1071E4,4.409E3],"tree_param":{"num_deleted":"0","num_feature":"11","num_nodes":"63","size_leaf_vector":"1"}},{"base_weights":[-9.049066E-4,-8.8755905E1,8.476781E1,-1.461204E2,-4.064918E1,4.751173E1,1.4909944E2,-1.808326E2,-1.18970215E2,-6.3584908E1,-1.903159E1,2.627165E1,7.515691E1,1.2600416E2,1.9118835E2,-2.1180179E2,-1.6623248E2,-1.3178812E2,-1.0250604E2,-7.549262E1,-5.0911293E1,-2.8169502E1,-8.165892E0,1.4709923E1,4.052774E1,6.460484E1,8.8316765E1,1.1341481E2,1.4338625E2,1.7885782E2,2.2070258E2,-1.1697845E1,-9.917806E0,-8.879897E0,-7.9114947E0,-5.7763667E0,-6.82909E0,-4.762252E0,-5.5945435E0,-3.2705605E0,-4.0868325E0,-2.3095253E0,-3.088856E0,-1.140109E0,-1.8415264E0,-2.0977171E-1,-1.0162915E0,5.344396E-1,1.394171E0,1.8644764E0,2.8167636E0,3.0900683E0,4.1536226E0,4.288247E0,5.4867435E0,5.812689E0,4.6013036E0,6.796827E0,7.600349E0,8.474499E0,9.406725E0,1.0700793E1,1.2334429E1],"categories":[],"categories_nodes":[],"categories_segments":[],"categories_sizes":[],"default_left":[0,0,0,0,0,0,0,0,0,0,0,0,0,0,0,0,0,0,0,0,0,0,0,0,0,0,0,0,0,0,0,0,0,0,0,0,0,0,0,0,0,0,0,0,0,0,0,0,0,0,0,0,0,0,0,0,0,0,0,0,0,0,0],"id":18,"left_children":[1,3,5,7,9,11,13,15,17,19,21,23,25,27,29,31,33,35,37,39,41,43,45,47,49,51,53,55,57,59,61,-1,-1,-1,-1,-1,-1,-1,-1,-1,-1,-1,-1,-1,-1,-1,-1,-1,-1,-1,-1,-1,-1,-1,-1,-1,-1,-1,-1,-1,-1,-1,-1],"loss_changes":[4.2624847E9,7.637358E8,6.944929E8,1.1886054E8,7.463194E7,1.0774691E8,1.0318054E8,2.4869504E7,1.4883648E7,1.1003328E7,7.693988E6,1.7103688E7,1.1043296E7,1.4937472E7,1.3501824E7,5.049088E6,3.285312E6,3.024704E6,2.06144E6,2.343024E6,1.801376E6,1.952672E6,1.7092225E6,3.034707E6,2.368424E6,2.266224E6,1.89136E6,2.364832E6,1.746816E6,2.149952E6,1.659456E6,0E0,0E0,0E0,0E0,0E0,0E0,0E0,0E0,0E0,0E0,0E0,0E0,0E0,0E0,0E0,0E0,0E0,0E0,0E0,0E0,0E0,0E0,0E0,0E0,0E0,0E0,0E0,0E0,0E0,0E0,0E0,0E0],"parents":[2147483647,0,0,1,1,2,2,3,3,4,4,5,5,6,6,7,7,8,8,9,9,10,10,11,11,12,12,13,13,14,14,15,15,16,16,17,17,18,18,19,19,20,20,21,21,22,22,23,23,24,24,25,25,26,26,27,27,28,28,29,29,30,30],"right_children":[2,4,6,8,10,12,14,16,18,20,22,24,26,28,30,32,34,36,38,40,42,44,46,48,50,52,54,56,58,60,62,-1,-1,-1,-1,-1,-1,-1,-1,-1,-1,-1,-1,-1,-1,-1,-1,-1,-1,-1,-1,-1,-1,-1,-1,-1,-1,-1,-1,-1,-1,-1,-1],"split_conditions":[1.643901E3,1.4146838E3,1.8924701E3,1.2688479E3,1.5411818E3,1.7745634E3,2.0484973E3,1.1654067E3,1.3504528E3,1.4845416E3,1.5987726E3,1.7139631E3,1.8367495E3,1.9683794E3,2.1530957E3,1.101377E3,1.2162878E3,-1.8369701E-16,7.0710677E-1,6.123234E-17,8.660254E-1,5E-1,8.660254E-1,5E-1,5E-1,5E-1,5E-1,8.660254E-1,2.0070503E3,2.0923477E3,2.2250112E3,-1.1697845E1,-9.917806E0,-8.879897E0,-7.9114947E0,-5.7763667E0,-6.82909E0,-4.762252E0,-5.5945435E0,-3.2705605E0,-4.0868325E0,-2.3095253E0,-3.088856E0,-1.140109E0,-1.8415264E0,-2.0977171E-1,-1.0162915E0,5.344396E-1,1.394171E0,1.8644764E0,2.8167636E0,3.0900683E0,4.1536226E0,4.288247E0,5.4867435E0,5.812689E0,4.6013036E0,6.796827E0,7.600349E0,8.474499E0,9.406725E0,1.0700793E1,1.2334429E1],"split_indices":[4,4,4,4,4,4,4,4,4,4,4,4,4,4,4,4,4,9,9,9,9,9,9,8,8,8,8,9,4,4,4,0,0,0,0,0,0,0,0,0,0,0,0,0,0,0,0,0,0,0,0,0,0,0,0,0,0,0,0,0,0,0,0],"split_type":[0,0,0,0,0,0,0,0,0,0,0,0,0,0,0,0,0,0,0,0,0,0,0,0,0,0,0,0,0,0,0,0,0,0,0,0,0,0,0,0,0,0,0,0,0,0,0,0,0,0,0,0,0,0,0,0,0,0,0,0,0,0,0],"sum_hessian":[5.66535E5,2.7676E5,2.89775E5,1.26229E5,1.50531E5,1.83509E5,1.06266E5,5.5387E4,7.0842E4,7.3034E4,7.7497E4,1.03782E5,7.9727E4,6.8628E4,3.7638E4,1.7724E4,3.7663E4,3.9812E4,3.103E4,3.7642E4,3.5392E4,4.2091E4,3.5406E4,5.7312E4,4.647E4,4.4264E4,3.5463E4,3.9823E4,2.8805E4,2.6572E4,1.1066E4,6.663E3,1.1061E4,1.5518E4,2.2145E4,9.093E3,3.0719E4,1.7526E4,1.3504E4,1.4419E4,2.3223E4,2.4691E4,1.0701E4,2.5998E4,1.6093E4,2.6696E4,8.71E3,4.3916E4,1.3396E4,3.8583E4,7.887E3,3.8449E4,5.815E3,3.171E4,3.753E3,3.5137E4,4.686E3,1.5497E4,1.3308E4,1.3269E4,1.3303E4,8.838E3,2.228E3],"tree_param":{"num_deleted":"0","num_feature":"11","num_nodes":"63","size_leaf_vector":"1"}},{"base_weights":[-7.682399E-4,-8.4319534E1,8.053095E1,-1.3881682E2,-3.8617294E1,4.3951004E1,1.396812E2,-1.7069853E2,-1.1209766E2,-6.0406544E1,-1.8080294E1,2.2909733E1,6.7700584E1,1.1608791E2,1.7816208E2,-2.0121776E2,-1.5709009E2,-1.242087E2,-9.738243E1,-7.171901E1,-4.8366455E1,-2.6761354E1,-7.757826E0,1.2519875E1,3.4801037E1,5.5394436E1,7.878306E1,1.03681885E2,1.3111081E2,1.6528545E2,2.0604572E2,-1.1506726E1,-9.580155E0,-8.378287E0,-7.435081E0,-5.6259007E0,-6.5181403E0,-4.58995E0,-5.421466E0,-3.3175704E0,-4.124603E0,-1.882202E0,-2.6432512E0,-1.546437E0,-8.1720126E-1,-1.720363E-1,-8.946873E-1,4.2937714E-1,1.2560242E0,1.6286322E0,2.7509465E0,2.9380434E0,2.0236607E0,4.092341E0,3.102348E0,5.3237853E0,4.1713448E0,6.1780133E0,6.9317064E0,7.739774E0,8.706705E0,1.0009865E1,1.1726238E1],"categories":[],"categories_nodes":[],"categories_segments":[],"categories_sizes":[],"default_left":[0,0,0,0,0,0,0,0,0,0,0,0,0,0,0,0,0,0,0,0,0,0,0,0,0,0,0,0,0,0,0,0,0,0,0,0,0,0,0,0,0,0,0,0,0,0,0,0,0,0,0,0,0,0,0,0,0,0,0,0,0,0,0],"id":19,"left_children":[1,3,5,7,9,11,13,15,17,19,21,23,25,27,29,31,33,35,37,39,41,43,45,47,49,51,53,55,57,59,61,-1,-1,-1,-1,-1,-1,-1,-1,-1,-1,-1,-1,-1,-1,-1,-1,-1,-1,-1,-1,-1,-1,-1,-1,-1,-1,-1,-1,-1,-1,-1,-1],"loss_changes":[3.8470303E9,6.8929715E8,6.2696986E8,1.074368E8,6.735723E7,8.947133E7,1.0042445E8,2.3742208E7,1.2181504E7,9.930736E6,6.943896E6,1.1728772E7,1.1449664E7,1.272768E7,1.4936832E7,4.708416E6,3.37472E6,2.63616E6,1.864384E6,2.14952E6,1.6974E6,1.824964E6,1.5491882E6,2.510186E6,1.985644E6,1.990936E6,2.2432E6,2.084736E6,1.677088E6,2.539136E6,1.975552E6,0E0,0E0,0E0,0E0,0E0,0E0,0E0,0E0,0E0,0E0,0E0,0E0,0E0,0E0,0E0,0E0,0E0,0E0,0E0,0E0,0E0,0E0,0E0,0E0,0E0,0E0,0E0,0E0,0E0,0E0,0E0,0E0],"parents":[2147483647,0,0,1,1,2,2,3,3,4,4,5,5,6,6,7,7,8,8,9,9,10,10,11,11,12,12,13,13,14,14,15,15,16,16,17,17,18,18,19,19,20,20,21,21,22,22,23,23,24,24,25,25,26,26,27,27,28,28,29,29,30,30],"right_children":[2,4,6,8,10,12,14,16,18,20,22,24,26,28,30,32,34,36,38,40,42,44,46,48,50,52,54,56,58,60,62,-1,-1,-1,-1,-1,-1,-1,-1,-1,-1,-1,-1,-1,-1,-1,-1,-1,-1,-1,-1,-1,-1,-1,-1,-1,-1,-1,-1,-1,-1,-1,-1],"split_conditions":[1.643901E3,1.4146838E3,1.8849465E3,1.2735823E3,1.5411818E3,1.7624946E3,2.034008E3,1.1654067E3,1.3504528E3,1.4845416E3,1.5987726E3,1.7056493E3,1.8170629E3,1.9541027E3,2.1401267E3,1.0788904E3,1.2221085E3,2.5881904E-1,8.660254E-1,8.660254E-1,1.4494852E3,7.0710677E-1,7.0710677E-1,5E-1,7.0710677E-1,8.660254E-1,8.660254E-1,8.660254E-1,1.9891866E3,2.0766816E3,2.2250112E3,-1.1506726E1,-9.580155E0,-8.378287E0,-7.435081E0,-5.6259007E0,-6.5181403E0,-4.58995E0,-5.421466E0,-3.3175704E0,-4.124603E0,-1.882202E0,-2.6432512E0,-1.546437E0,-8.1720126E-1,-1.720363E-1,-8.946873E-1,4.2937714E-1,1.2560242E0,1.6286322E0,2.7509465E0,2.9380434E0,2.0236607E0,4.092341E0,3.102348E0,5.3237853E0,4.1713448E0,6.1780133E0,6.9317064E0,7.739774E0,8.706705E0,1.0009865E1,1.1726238E1],"split_indices":[4,4,4,4,4,4,4,4,4,4,4,4,4,4,5,5,4,9,9,9,6,8,9,8,8,9,9,9,4,4,5,0,0,0,0,0,0,0,0,0,0,0,0,0,0,0,0,0,0,0,0,0,0,0,0,0,0,0,0,0,0,0,0],"split_type":[0,0,0,0,0,0,0,0,0,0,0,0,0,0,0,0,0,0,0,0,0,0,0,0,0,0,0,0,0,0,0,0,0,0,0,0,0,0,0,0,0,0,0,0,0,0,0,0,0,0,0,0,0,0,0,0,0,0,0,0,0,0,0],"sum_hessian":[5.66535E5,2.7676E5,2.89775E5,1.26229E5,1.50531E5,1.79053E5,1.10722E5,5.7542E4,6.8687E4,7.3034E4,7.7497E4,9.4945E4,8.4108E4,6.8651E4,4.2071E4,1.7724E4,3.9818E4,3.7657E4,3.103E4,3.7642E4,3.5392E4,4.2091E4,3.5406E4,5.0677E4,4.4268E4,3.9868E4,4.424E4,3.7622E4,3.1029E4,2.8804E4,1.3267E4,4.394E3,1.333E4,1.7664E4,2.2154E4,1.302E4,2.4637E4,2.0643E4,1.0387E4,2.5148E4,1.2494E4,1.0474E4,2.4918E4,3.0057E4,1.2034E4,2.4835E4,1.0571E4,3.863E4,1.2047E4,3.9885E4,4.383E3,3.2517E4,7.351E3,3.7378E4,6.862E3,3.3043E4,4.579E3,1.553E4,1.5499E4,1.3222E4,1.5582E4,1.104E4,2.227E3],"tree_param":{"num_deleted":"0","num_feature":"11","num_nodes":"63","size_leaf_vector":"1"}},{"base_weights":[-6.714899E-4,-8.802708E1,6.963163E1,-1.4094983E2,-5.034354E1,3.17442E1,1.2666768E2,-1.736505E2,-1.22406296E2,-7.3123795E1,-3.0156393E1,9.181434E0,5.321464E1,1.0269289E2,1.6477034E2,-2.060371E2,-1.6371997E2,-1.3416884E2,-1.089325E2,-8.556377E1,-6.1445137E1,-4.0055317E1,-1.9695885E1,-2.8312395E0,1.8127842E1,4.127429E1,6.515394E1,9.12451E1,1.1798574E2,1.5020291E2,1.9026163E2,-1.1740597E1,-9.813027E0,-8.48397E0,-7.4871154E0,-5.2206316E0,-6.809273E0,-5.004019E0,-5.839641E0,-3.5171242E0,-4.4820023E0,-2.6216729E0,-3.353174E0,-1.5122513E0,-2.218589E0,-7.664601E-1,-1.4690632E0,-3.4412277E-1,3.7710246E-1,1.0826248E0,2.5954726E-1,1.9608539E0,3.1718738E0,3.1310427E0,4.1679797E0,4.70142E0,3.612056E0,5.795666E0,7.020054E0,7.047794E0,7.9734163E0,9.001334E0,1.036419E1],"categories":[],"categories_nodes":[],"categories_segments":[],"categories_sizes":[],"default_left":[0,0,0,0,0,0,0,0,0,0,0,0,0,0,0,0,0,0,0,0,0,0,0,0,0,0,0,0,0,0,0,0,0,0,0,0,0,0,0,0,0,0,0,0,0,0,0,0,0,0,0,0,0,0,0,0,0,0,0,0,0,0,0],"id":20,"left_children":[1,3,5,7,9,11,13,15,17,19,21,23,25,27,29,31,33,35,37,39,41,43,45,47,49,51,53,55,57,59,61,-1,-1,-1,-1,-1,-1,-1,-1,-1,-1,-1,-1,-1,-1,-1,-1,-1,-1,-1,-1,-1,-1,-1,-1,-1,-1,-1,-1,-1,-1,-1,-1],"loss_changes":[3.472627E9,4.989883E8,6.835356E8,6.2997504E7,6.720422E7,9.20751E7,1.1524877E8,1.1938816E7,1.0454208E7,9.949728E6,8.020992E6,9.961147E6,1.3870784E7,1.3515136E7,1.7960576E7,2.249184E6,2.274816E6,2.05568E6,2.097536E6,2.030608E6,1.776464E6,1.679204E6,1.59179E6,1.6630398E6,2.421732E6,2.208328E6,2.219232E6,2.31168E6,1.459104E6,2.547456E6,2.898624E6,0E0,0E0,0E0,0E0,0E0,0E0,0E0,0E0,0E0,0E0,0E0,0E0,0E0,0E0,0E0,0E0,0E0,0E0,0E0,0E0,0E0,0E0,0E0,0E0,0E0,0E0,0E0,0E0,0E0,0E0,0E0,0E0],"parents":[2147483647,0,0,1,1,2,2,3,3,4,4,5,5,6,6,7,7,8,8,9,9,10,10,11,11,12,12,13,13,14,14,15,15,16,16,17,17,18,18,19,19,20,20,21,21,22,22,23,23,24,24,25,25,26,26,27,27,28,28,29,29,30,30],"right_children":[2,4,6,8,10,12,14,16,18,20,22,24,26,28,30,32,34,36,38,40,42,44,46,48,50,52,54,56,58,60,62,-1,-1,-1,-1,-1,-1,-1,-1,-1,-1,-1,-1,-1,-1,-1,-1,-1,-1,-1,-1,-1,-1,-1,-1,-1,-1,-1,-1,-1,-1,-1,-1],"split_conditions":[1.6105332E3,1.3691074E3,1.8601835E3,1.2279269E3,1.4990111E3,1.7250143E3,2.013328E3,1.1197808E3,1.3052919E3,1.4370214E3,1.5601602E3,1.6598444E3,1.7889862E3,1.9363887E3,2.1187327E3,1.0479531E3,6E0,-2.5881904E-1,5E-1,-2.5881904E-1,-1.8369701E-16,1.4690477E3,7.0710677E-1,5E-1,8.660254E-1,7.0710677E-1,5E-1,8.660254E-1,5E-1,2.0626409E3,2.1826177E3,-1.1740597E1,-9.813027E0,-8.48397E0,-7.4871154E0,-5.2206316E0,-6.809273E0,-5.004019E0,-5.839641E0,-3.5171242E0,-4.4820023E0,-2.6216729E0,-3.353174E0,-1.5122513E0,-2.218589E0,-7.664601E-1,-1.4690632E0,-3.4412277E-1,3.7710246E-1,1.0826248E0,2.5954726E-1,1.9608539E0,3.1718738E0,3.1310427E0,4.1679797E0,4.70142E0,3.612056E0,5.795666E0,7.020054E0,7.047794E0,7.9734163E0,9.001334E0,1.036419E1],"split_indices":[4,4,4,4,4,4,4,5,4,4,4,4,4,4,4,4,0,9,9,9,9,6,9,8,9,8,8,9,8,4,5,0,0,0,0,0,0,0,0,0,0,0,0,0,0,0,0,0,0,0,0,0,0,0,0,0,0,0,0,0,0,0,0],"split_type":[0,0,0,0,0,0,0,0,0,0,0,0,0,0,0,0,0,0,0,0,0,0,0,0,0,0,0,0,0,0,0,0,0,0,0,0,0,0,0,0,0,0,0,0,0,0,0,0,0,0,0,0,0,0,0,0,0,0,0,0,0,0,0],"sum_hessian":[5.66535E5,2.50218E5,3.16317E5,1.04061E5,1.46157E5,1.90068E5,1.26249E5,3.7641E4,6.642E4,6.8662E4,7.7495E4,9.268E4,9.7388E4,7.7502E4,4.8747E4,8.81E3,2.8831E4,3.5438E4,3.0982E4,3.3232E4,3.543E4,3.9809E4,3.7686E4,3.9562E4,5.3118E4,4.8703E4,4.8685E4,4.4343E4,3.3159E4,3.1042E4,1.7705E4,2.205E3,6.605E3,2.0174E4,8.657E3,2.266E3,3.3172E4,1.4604E4,1.6378E4,7.039E3,2.6193E4,1.3626E4,2.1804E4,1.2176E4,2.7633E4,2.5984E4,1.1702E4,2.8452E4,1.111E4,4.1742E4,1.1376E4,4.4579E4,4.124E3,4.2758E4,5.927E3,3.8661E4,5.682E3,3.0381E4,2.778E3,1.5577E4,1.5465E4,1.1093E4,6.612E3],"tree_param":{"num_deleted":"0","num_feature":"11","num_nodes":"63","size_leaf_vector":"1"}},{"base_weights":[-7.296299E-4,-7.611428E1,7.26943E1,-1.2864386E2,-3.7441124E1,4.1232292E1,1.2885475E2,-1.5973288E2,-1.0821481E2,-6.1359173E1,-1.9352703E1,2.2926464E1,6.556096E1,1.0891861E2,1.6400854E2,-1.8777745E2,-1.4848695E2,-1.2108312E2,-9.532539E1,-7.349588E1,-5.1360966E1,-3.173479E1,-1.0586555E1,1.2966566E1,3.568422E1,5.6905434E1,7.767881E1,9.876207E1,1.24111534E2,1.5329735E2,1.8964772E2,-1.1044915E1,-9.053098E0,-7.954629E0,-7.070968E0,-4.740394E0,-6.1616836E0,-4.351082E0,-5.130983E0,-3.4098961E0,-4.1847377E0,-2.8586383E0,-2.1903741E0,-1.2382834E0,-1.8725741E0,-3.4838244E-1,-1.0719763E0,8.220944E-1,2.0036625E-2,1.9496367E0,1.1373985E0,2.9968216E0,2.1427026E0,3.7620704E0,4.9027734E0,5.059746E0,4.004979E0,6.1027584E0,7.3450356E0,7.378494E0,8.233062E0,9.182956E0,1.064693E1],"categories":[],"categories_nodes":[],"categories_segments":[],"categories_sizes":[],"default_left":[0,0,0,0,0,0,0,0,0,0,0,0,0,0,0,0,0,0,0,0,0,0,0,0,0,0,0,0,0,0,0,0,0,0,0,0,0,0,0,0,0,0,0,0,0,0,0,0,0,0,0,0,0,0,0,0,0,0,0,0,0,0,0],"id":21,"left_children":[1,3,5,7,9,11,13,15,17,19,21,23,25,27,29,31,33,35,37,39,41,43,45,47,49,51,53,55,57,59,61,-1,-1,-1,-1,-1,-1,-1,-1,-1,-1,-1,-1,-1,-1,-1,-1,-1,-1,-1,-1,-1,-1,-1,-1,-1,-1,-1,-1,-1,-1,-1,-1],"loss_changes":[3.134737E9,5.6221965E8,5.1199155E8,7.444851E7,6.896285E7,8.271203E7,7.282995E7,1.4534144E7,1.1691264E7,8.310576E6,9.85142E6,1.3466144E7,8.342208E6,1.0186048E7,1.0192192E7,2.757632E6,2.378432E6,1.94336E6,2.10016E6,1.64608E6,1.640416E6,1.494328E6,2.0869875E6,2.599784E6,1.984352E6,1.969136E6,1.612624E6,1.767616E6,1.156224E6,1.608192E6,1.348448E6,0E0,0E0,0E0,0E0,0E0,0E0,0E0,0E0,0E0,0E0,0E0,0E0,0E0,0E0,0E0,0E0,0E0,0E0,0E0,0E0,0E0,0E0,0E0,0E0,0E0,0E0,0E0,0E0,0E0,0E0,0E0,0E0],"parents":[2147483647,0,0,1,1,2,2,3,3,4,4,5,5,6,6,7,7,8,8,9,9,10,10,11,11,12,12,13,13,14,14,15,15,16,16,17,17,18,18,19,19,20,20,21,21,22,22,23,23,24,24,25,25,26,26,27,27,28,28,29,29,30,30],"right_children":[2,4,6,8,10,12,14,16,18,20,22,24,26,28,30,32,34,36,38,40,42,44,46,48,50,52,54,56,58,60,62,-1,-1,-1,-1,-1,-1,-1,-1,-1,-1,-1,-1,-1,-1,-1,-1,-1,-1,-1,-1,-1,-1,-1,-1,-1,-1,-1,-1,-1,-1,-1,-1],"split_conditions":[1.643901E3,1.3968162E3,1.8962065E3,1.2491125E3,1.5203451E3,1.7774358E3,2.0484973E3,1.1468268E3,1.323239E3,1.4575917E3,1.5752532E3,1.7168738E3,1.8435054E3,1.9733931E3,2.1530957E3,1.0477291E3,1.1959124E3,-2.5881904E-1,5E-1,8.660254E-1,7.0710677E-1,-1.8369701E-16,8.660254E-1,8.660254E-1,8.660254E-1,8.660254E-1,5E-1,8.660254E-1,5E-1,2.1093335E3,2.2250112E3,-1.1044915E1,-9.053098E0,-7.954629E0,-7.070968E0,-4.740394E0,-6.1616836E0,-4.351082E0,-5.130983E0,-3.4098961E0,-4.1847377E0,-2.8586383E0,-2.1903741E0,-1.2382834E0,-1.8725741E0,-3.4838244E-1,-1.0719763E0,8.220944E-1,2.0036625E-2,1.9496367E0,1.1373985E0,2.9968216E0,2.1427026E0,3.7620704E0,4.9027734E0,5.059746E0,4.004979E0,6.1027584E0,7.3450356E0,7.378494E0,8.233062E0,9.182956E0,1.064693E1],"split_indices":[4,4,4,4,4,4,4,4,4,4,4,4,4,4,4,5,4,9,9,9,8,9,9,9,9,9,8,9,8,5,4,0,0,0,0,0,0,0,0,0,0,0,0,0,0,0,0,0,0,0,0,0,0,0,0,0,0,0,0,0,0,0,0],"split_type":[0,0,0,0,0,0,0,0,0,0,0,0,0,0,0,0,0,0,0,0,0,0,0,0,0,0,0,0,0,0,0,0,0,0,0,0,0,0,0,0,0,0,0,0,0,0,0,0,0,0,0,0,0,0,0,0,0,0,0,0,0,0,0],"sum_hessian":[5.66535E5,2.7676E5,2.89775E5,1.17351E5,1.59409E5,1.85733E5,1.04042E5,4.6521E4,7.083E4,6.8638E4,9.0771E4,1.05991E5,7.9742E4,6.6404E4,3.7638E4,1.3293E4,3.3228E4,3.5423E4,3.5407E4,3.0989E4,3.7649E4,3.762E4,5.3151E4,5.9528E4,4.6463E4,4.6533E4,3.3209E4,3.9821E4,2.6583E4,2.6572E4,1.1066E4,2.214E3,1.1079E4,1.3245E4,1.9983E4,2.697E3,3.2726E4,1.6588E4,1.8819E4,2.042E4,1.0569E4,2.1259E4,1.639E4,1.6965E4,2.0655E4,3.9866E4,1.3285E4,4.663E4,1.2898E4,3.6992E4,9.471E3,3.8263E4,8.27E3,2.9682E4,3.527E3,3.5209E4,4.612E3,2.4412E4,2.171E3,1.7714E4,8.858E3,8.838E3,2.228E3],"tree_param":{"num_deleted":"0","num_feature":"11","num_nodes":"63","size_leaf_vector":"1"}},{"base_weights":[-6.659774E-4,-8.0195755E1,6.2306465E1,-1.2813985E2,-4.67081E1,2.818796E1,1.1434679E2,-1.5970854E2,-1.1283608E2,-6.8603714E1,-2.9481668E1,8.799225E0,4.8979115E1,9.347484E1,1.5012772E2,-1.8627574E2,-1.5010132E2,-1.25929565E2,-1.02042496E2,-8.005532E1,-5.928084E1,-3.9349934E1,-2.0052252E1,-1.7002761E-1,2.0010567E1,3.9019318E1,5.9933735E1,8.28684E1,1.08312454E2,1.3808292E2,1.7427315E2,-1.0622781E1,-8.868683E0,-7.512764E0,1.5058204E1,-6.573047E0,-5.7783937E0,-4.5849123E0,-5.3859158E0,-3.271122E0,-4.182277E0,-2.690377E0,-3.3756979E0,-2.2169108E0,-1.571715E0,-1.1874679E0,-5.0243205E-1,1.8672752E-1,-4.8860875E-1,8.3909035E-1,1.6073503E0,1.8143748E0,2.6922853E0,2.87723E0,3.8567798E0,4.03038E0,5.1862273E0,5.15549E0,5.8026443E0,6.4721217E0,7.3320894E0,8.336913E0,9.642486E0],"categories":[],"categories_nodes":[],"categories_segments":[],"categories_sizes":[],"default_left":[0,0,0,0,0,0,0,0,0,0,0,0,0,0,0,0,0,0,0,0,0,0,0,0,0,0,0,0,0,0,0,0,0,0,0,0,0,0,0,0,0,0,0,0,0,0,0,0,0,0,0,0,0,0,0,0,0,0,0,0,0,0,0],"id":22,"left_children":[1,3,5,7,9,11,13,15,17,19,21,23,25,27,29,31,33,35,37,39,41,43,45,47,49,51,53,55,57,59,61,-1,-1,-1,-1,-1,-1,-1,-1,-1,-1,-1,-1,-1,-1,-1,-1,-1,-1,-1,-1,-1,-1,-1,-1,-1,-1,-1,-1,-1,-1,-1,-1],"loss_changes":[2.83087E9,3.976836E8,5.6608026E8,4.91232E7,5.500317E7,7.763037E7,9.42185E7,8.345856E6,9.633984E6,6.83232E6,7.592696E6,1.002137E7,1.0127344E7,1.2506048E7,1.3404736E7,1.864352E6,1.92448E6,1.699904E6,2.160576E6,1.48584E6,1.57784E6,1.567912E6,1.543184E6,2.076136E6,1.73293E6,1.962248E6,1.796096E6,2.152032E6,1.27824E6,2.201344E6,2.002848E6,0E0,0E0,0E0,0E0,0E0,0E0,0E0,0E0,0E0,0E0,0E0,0E0,0E0,0E0,0E0,0E0,0E0,0E0,0E0,0E0,0E0,0E0,0E0,0E0,0E0,0E0,0E0,0E0,0E0,0E0,0E0,0E0],"parents":[2147483647,0,0,1,1,2,2,3,3,4,4,5,5,6,6,7,7,8,8,9,9,10,10,11,11,12,12,13,13,14,14,15,15,16,16,17,17,18,18,19,19,20,20,21,21,22,22,23,23,24,24,25,25,26,26,27,27,28,28,29,29,30,30],"right_children":[2,4,6,8,10,12,14,16,18,20,22,24,26,28,30,32,34,36,38,40,42,44,46,48,50,52,54,56,58,60,62,-1,-1,-1,-1,-1,-1,-1,-1,-1,-1,-1,-1,-1,-1,-1,-1,-1,-1,-1,-1,-1,-1,-1,-1,-1,-1,-1,-1,-1,-1,-1,-1],"split_conditions":[1.6072858E3,1.364515E3,1.8601835E3,1.2162878E3,1.4881785E3,1.7307775E3,2.0201385E3,1.1197808E3,1.2875936E3,1.4237797E3,1.5508364E3,1.67616E3,1.7951464E3,1.9407494E3,2.1287468E3,1.0479531E3,1.8203018E3,6E0,2.5881904E-1,-2.5881904E-1,7.0710677E-1,7.0710677E-1,7.0710677E-1,7.0710677E-1,5E-1,5E-1,5E-1,5E-1,1.9835957E3,2.0697515E3,2.2010002E3,-1.0622781E1,-8.868683E0,-7.512764E0,1.5058204E1,-6.573047E0,-5.7783937E0,-4.5849123E0,-5.3859158E0,-3.271122E0,-4.182277E0,-2.690377E0,-3.3756979E0,-2.2169108E0,-1.571715E0,-1.1874679E0,-5.0243205E-1,1.8672752E-1,-4.8860875E-1,8.3909035E-1,1.6073503E0,1.8143748E0,2.6922853E0,2.87723E0,3.8567798E0,4.03038E0,5.1862273E0,5.15549E0,5.8026443E0,6.4721217E0,7.3320894E0,8.336913E0,9.642486E0],"split_indices":[4,4,4,4,4,4,4,5,4,4,4,4,4,4,5,4,5,0,9,9,9,8,8,9,8,8,8,8,4,4,4,0,0,0,0,0,0,0,0,0,0,0,0,0,0,0,0,0,0,0,0,0,0,0,0,0,0,0,0,0,0,0,0],"split_type":[0,0,0,0,0,0,0,0,0,0,0,0,0,0,0,0,0,0,0,0,0,0,0,0,0,0,0,0,0,0,0,0,0,0,0,0,0,0,0,0,0,0,0,0,0,0,0,0,0,0,0,0,0,0,0,0,0,0,0,0,0,0,0],"sum_hessian":[5.66535E5,2.47709E5,3.18826E5,1.01861E5,1.45848E5,1.92577E5,1.26249E5,3.3242E4,6.8619E4,6.4214E4,8.1634E4,9.9653E4,9.2924E4,7.9748E4,4.6501E4,8.804E3,2.4438E4,3.0982E4,3.7637E4,2.88E4,3.5414E4,3.9881E4,4.1753E4,5.5365E4,4.4288E4,4.8684E4,4.424E4,4.6524E4,3.3224E4,3.1047E4,1.5454E4,2.205E3,6.599E3,2.4433E4,5E0,2.0161E4,1.0821E4,1.3365E4,2.4272E4,5.693E3,2.3107E4,2.1295E4,1.4119E4,2.445E4,1.5431E4,3.0481E4,1.1272E4,3.9362E4,1.6003E4,3.4991E4,9.297E3,4.1124E4,7.56E3,3.8864E4,5.376E3,4.1996E4,4.528E3,1.9912E4,1.3312E4,1.549E4,1.5557E4,1.103E4,4.424E3],"tree_param":{"num_deleted":"0","num_feature":"11","num_nodes":"63","size_leaf_vector":"1"}},{"base_weights":[-5.214758E-4,-7.153912E1,6.3058735E1,-1.17699814E2,-3.7369377E1,3.2532536E1,1.1236634E2,-1.4540082E2,-9.979694E1,-5.7320663E1,-2.0051926E1,1.4085052E1,5.1878235E1,9.26191E1,1.4391954E2,-1.6973344E2,-1.349455E2,-1.10765755E2,-8.806641E1,-6.905501E1,-4.816533E1,-2.907984E1,-1.1446467E1,4.1094384E0,2.285489E1,4.2510128E1,6.2729702E1,8.210477E1,1.04531105E2,1.322295E2,1.656383E2,-9.980887E0,-8.183702E0,-6.920297E0,-5.7985044E0,-5.0553026E0,-5.7869906E0,-4.015166E0,-4.745294E0,-2.9761493E0,-3.693554E0,-1.8857125E0,-2.5996296E0,-9.7776175E-1,-1.6478968E0,-7.4291575E-1,-2.4705715E-2,2.2471916E-2,7.345902E-1,1.2978781E0,5.597927E-1,2.2788765E0,1.4637564E0,3.2730947E0,2.4141686E0,4.274113E0,3.45061E0,5.129413E0,6.296314E0,6.255325E0,7.022823E0,7.923074E0,9.172967E0],"categories":[],"categories_nodes":[],"categories_segments":[],"categories_sizes":[],"default_left":[0,0,0,0,0,0,0,0,0,0,0,0,0,0,0,0,0,0,0,0,0,0,0,0,0,0,0,0,0,0,0,0,0,0,0,0,0,0,0,0,0,0,0,0,0,0,0,0,0,0,0,0,0,0,0,0,0,0,0,0,0,0,0],"id":23,"left_children":[1,3,5,7,9,11,13,15,17,19,21,23,25,27,29,31,33,35,37,39,41,43,45,47,49,51,53,55,57,59,61,-1,-1,-1,-1,-1,-1,-1,-1,-1,-1,-1,-1,-1,-1,-1,-1,-1,-1,-1,-1,-1,-1,-1,-1,-1,-1,-1,-1,-1,-1,-1,-1],"loss_changes":[2.5557814E9,4.186359E8,4.532165E8,5.591795E7,5.2694496E7,6.6370896E7,7.167386E7,1.1158272E7,8.77728E6,7.597344E6,6.342656E6,8.328918E6,9.2152E6,8.828352E6,1.1140608E7,2.24448E6,1.956352E6,1.64368E6,1.723024E6,1.403344E6,1.583232E6,1.468704E6,1.5626005E6,1.7254072E6,1.83133E6,1.971832E6,1.643856E6,1.63512E6,1.314912E6,1.601504E6,1.834976E6,0E0,0E0,0E0,0E0,0E0,0E0,0E0,0E0,0E0,0E0,0E0,0E0,0E0,0E0,0E0,0E0,0E0,0E0,0E0,0E0,0E0,0E0,0E0,0E0,0E0,0E0,0E0,0E0,0E0,0E0,0E0,0E0],"parents":[2147483647,0,0,1,1,2,2,3,3,4,4,5,5,6,6,7,7,8,8,9,9,10,10,11,11,12,12,13,13,14,14,15,15,16,16,17,17,18,18,19,19,20,20,21,21,22,22,23,23,24,24,25,25,26,26,27,27,28,28,29,29,30,30],"right_children":[2,4,6,8,10,12,14,16,18,20,22,24,26,28,30,32,34,36,38,40,42,44,46,48,50,52,54,56,58,60,62,-1,-1,-1,-1,-1,-1,-1,-1,-1,-1,-1,-1,-1,-1,-1,-1,-1,-1,-1,-1,-1,-1,-1,-1,-1,-1,-1,-1,-1,-1,-1,-1],"split_conditions":[1.6299241E3,1.3874854E3,1.877642E3,1.2438972E3,1.5168577E3,1.7478767E3,2.0272205E3,1.1468268E3,1.3186978E3,1.4497705E3,1.5752532E3,1.684426E3,1.8137754E3,1.9451212E3,2.1287468E3,1.0477291E3,7E0,2.5881904E-1,5E-1,6.123234E-17,1.4145175E3,1.4574645E3,7.0710677E-1,5E-1,8.660254E-1,8.660254E-1,8.660254E-1,7.0710677E-1,5E-1,2.0766816E3,2.2010002E3,-9.980887E0,-8.183702E0,-6.920297E0,-5.7985044E0,-5.0553026E0,-5.7869906E0,-4.015166E0,-4.745294E0,-2.9761493E0,-3.693554E0,-1.8857125E0,-2.5996296E0,-9.7776175E-1,-1.6478968E0,-7.4291575E-1,-2.4705715E-2,2.2471916E-2,7.345902E-1,1.2978781E0,5.597927E-1,2.2788765E0,1.4637564E0,3.2730947E0,2.4141686E0,4.274113E0,3.45061E0,5.129413E0,6.296314E0,6.255325E0,7.022823E0,7.923074E0,9.172967E0],"split_indices":[4,4,4,4,4,4,4,4,4,4,4,4,4,4,4,5,0,9,9,9,6,6,8,8,9,9,9,9,8,4,5,0,0,0,0,0,0,0,0,0,0,0,0,0,0,0,0,0,0,0,0,0,0,0,0,0,0,0,0,0,0,0,0],"split_type":[0,0,0,0,0,0,0,0,0,0,0,0,0,0,0,0,0,0,0,0,0,0,0,0,0,0,0,0,0,0,0,0,0,0,0,0,0,0,0,0,0,0,0,0,0,0,0,0,0,0,0,0,0,0,0,0,0,0,0,0,0,0,0],"sum_hessian":[5.66535E5,2.65422E5,3.01113E5,1.12896E5,1.52526E5,1.85981E5,1.15132E5,4.4306E4,6.859E4,7.0868E4,8.1658E4,9.5205E4,9.0776E4,7.0826E4,4.4306E4,1.3293E4,3.1013E4,3.5424E4,3.3166E4,3.1045E4,3.9823E4,3.9845E4,4.1813E4,4.4544E4,5.0661E4,4.8731E4,4.2045E4,3.7641E4,3.3185E4,2.8826E4,1.548E4,2.214E3,1.1079E4,2.6203E4,4.81E3,1.2077E4,2.3347E4,1.5564E4,1.7602E4,1.0443E4,2.0602E4,1.0689E4,2.9134E4,1.1538E4,2.8307E4,3.188E4,9.933E3,3.3101E4,1.1443E4,4.0008E4,1.0653E4,3.9552E4,9.179E3,3.5343E4,6.702E3,2.99E4,7.741E3,3.0449E4,2.736E3,1.5493E4,1.3333E4,1.1071E4,4.409E3],"tree_param":{"num_deleted":"0","num_feature":"11","num_nodes":"63","size_leaf_vector":"1"}},{"base_weights":[-5.2811345E-4,-6.4799576E1,6.2862225E1,-1.0750916E2,-2.9501167E1,3.711482E1,1.1311221E2,-1.3241148E2,-8.6639305E1,-4.629553E1,-1.3190758E1,2.0512217E1,5.802893E1,9.572697E1,1.4070906E2,-1.545368E2,-1.2069383E2,-9.6684364E1,-7.590747E1,-5.6734463E1,-3.8044727E1,-1.985435E1,-5.2760777E0,1.1995168E1,3.1415735E1,4.9317196E1,6.7712425E1,8.822991E1,1.08418236E2,1.31418E2,1.6294955E2,-8.663792E0,-7.252191E0,-6.2066636E0,-5.2241926E0,-3.7689705E0,-4.9469576E0,-4.209718E0,-3.5165784E0,-2.609105E0,-3.2879987E0,-1.6419696E0,-2.2473428E0,-5.533345E-1,-1.1815783E0,-4.17128E-1,2.9065177E-1,4.3730226E-1,1.144659E0,1.4343189E0,2.2607305E0,2.3516529E0,3.2472165E0,3.2758706E0,4.3244357E0,4.3153157E0,5.3977447E0,5.5366826E0,4.4811687E0,6.2727613E0,6.9849296E0,7.88047E0,9.19604E0],"categories":[],"categories_nodes":[],"categories_segments":[],"categories_sizes":[],"default_left":[0,0,0,0,0,0,0,0,0,0,0,0,0,0,0,0,0,0,0,0,0,0,0,0,0,0,0,0,0,0,0,0,0,0,0,0,0,0,0,0,0,0,0,0,0,0,0,0,0,0,0,0,0,0,0,0,0,0,0,0,0,0,0],"id":24,"left_children":[1,3,5,7,9,11,13,15,17,19,21,23,25,27,29,31,33,35,37,39,41,43,45,47,49,51,53,55,57,59,61,-1,-1,-1,-1,-1,-1,-1,-1,-1,-1,-1,-1,-1,-1,-1,-1,-1,-1,-1,-1,-1,-1,-1,-1,-1,-1,-1,-1,-1,-1,-1,-1],"loss_changes":[2.3077908E9,4.205628E8,3.7203763E8,6.554739E7,4.1837816E7,6.601957E7,4.6674304E7,1.4826048E7,7.368352E6,6.470848E6,4.086671E6,9.842708E6,7.081792E6,5.640576E6,7.671232E6,3.415392E6,2.033856E6,1.666176E6,1.505952E6,1.347368E6,1.503276E6,1.395164E6,1.2050255E6,2.106738E6,1.744312E6,1.566448E6,1.61344E6,1.380416E6,9.15504E5,1.224448E6,1.09472E6,0E0,0E0,0E0,0E0,0E0,0E0,0E0,0E0,0E0,0E0,0E0,0E0,0E0,0E0,0E0,0E0,0E0,0E0,0E0,0E0,0E0,0E0,0E0,0E0,0E0,0E0,0E0,0E0,0E0,0E0,0E0,0E0],"parents":[2147483647,0,0,1,1,2,2,3,3,4,4,5,5,6,6,7,7,8,8,9,9,10,10,11,11,12,12,13,13,14,14,15,15,16,16,17,17,18,18,19,19,20,20,21,21,22,22,23,23,24,24,25,25,26,26,27,27,28,28,29,29,30,30],"right_children":[2,4,6,8,10,12,14,16,18,20,22,24,26,28,30,32,34,36,38,40,42,44,46,48,50,52,54,56,58,60,62,-1,-1,-1,-1,-1,-1,-1,-1,-1,-1,-1,-1,-1,-1,-1,-1,-1,-1,-1,-1,-1,-1,-1,-1,-1,-1,-1,-1,-1,-1,-1,-1],"split_conditions":[1.6466188E3,1.4146838E3,1.9075728E3,1.2735823E3,1.5443759E3,1.7803948E3,2.0484973E3,1.1734138E3,1.3457454E3,1.4771278E3,1.6016661E3,1.7195209E3,1.8435054E3,1.9835957E3,2.1530957E3,1.101377E3,7E0,-2.5881904E-1,7.0710677E-1,8.660254E-1,5E-1,1.4652198E3,7.0710677E-1,5E-1,5E-1,5E-1,5E-1,5E-1,8.660254E-1,2.1008645E3,2.2250112E3,-8.663792E0,-7.252191E0,-6.2066636E0,-5.2241926E0,-3.7689705E0,-4.9469576E0,-4.209718E0,-3.5165784E0,-2.609105E0,-3.2879987E0,-1.6419696E0,-2.2473428E0,-5.533345E-1,-1.1815783E0,-4.17128E-1,2.9065177E-1,4.3730226E-1,1.144659E0,1.4343189E0,2.2607305E0,2.3516529E0,3.2472165E0,3.2758706E0,4.3244357E0,4.3153157E0,5.3977447E0,5.5366826E0,4.4811687E0,6.2727613E0,6.9849296E0,7.88047E0,9.19604E0],"split_indices":[4,4,4,4,4,4,4,4,4,4,4,4,4,4,4,4,0,9,8,9,9,6,8,8,8,8,8,8,9,4,5,0,0,0,0,0,0,0,0,0,0,0,0,0,0,0,0,0,0,0,0,0,0,0,0,0,0,0,0,0,0,0,0],"split_type":[0,0,0,0,0,0,0,0,0,0,0,0,0,0,0,0,0,0,0,0,0,0,0,0,0,0,0,0,0,0,0,0,0,0,0,0,0,0,0,0,0,0,0,0,0,0,0,0,0,0,0,0,0,0,0,0,0,0,0,0,0,0,0],"sum_hessian":[5.66535E5,2.78971E5,2.87564E5,1.26229E5,1.52742E5,1.90145E5,9.7419E4,5.7542E4,6.8687E4,7.525E4,7.7492E4,1.06004E5,8.4141E4,5.9781E4,3.7638E4,1.9902E4,3.764E4,3.5458E4,3.3229E4,3.3207E4,4.2043E4,4.2067E4,3.5425E4,5.9521E4,4.6483E4,4.4309E4,3.9832E4,3.7606E4,2.2175E4,2.6572E4,1.1066E4,6.663E3,1.3239E4,3.1024E4,6.616E3,3.41E3,3.2048E4,1.3337E4,1.9892E4,2.2096E4,1.1111E4,2.3984E4,1.8059E4,1.2652E4,2.9415E4,2.7752E4,7.673E3,4.5858E4,1.3663E4,3.882E4,7.663E3,3.8676E4,5.633E3,3.5683E4,4.149E3,3.4289E4,3.317E3,1.9721E4,2.454E3,1.5495E4,1.1077E4,8.854E3,2.212E3],"tree_param":{"num_deleted":"0","num_feature":"11","num_nodes":"63","size_leaf_vector":"1"}},{"base_weights":[-3.9232374E-4,-6.066562E1,6.060939E1,-1.0151028E2,-2.6771435E1,3.6066307E1,1.0745917E2,-1.2579328E2,-8.178289E1,-4.33531E1,-1.1930071E1,2.0314781E1,5.5128254E1,9.094225E1,1.3367764E2,-1.4681395E2,-1.14660645E2,-9.070696E1,-7.028052E1,-5.2049637E1,-3.5144653E1,-1.8494223E1,-4.1475935E0,1.2309603E1,2.9845339E1,4.7271126E1,6.4831215E1,8.322584E1,1.0212363E2,1.2484961E2,1.5480978E2,-8.245087E0,-6.890261E0,-5.992483E0,-5.2330837E0,-3.9259622E0,-4.7206197E0,-2.8336904E0,-3.6738358E0,-2.0852213E0,-2.7776256E0,-1.9960028E0,-1.3924268E0,-1.0959879E0,-4.8139158E-1,-3.8504776E-1,2.2505093E-1,7.6831764E-1,5.77065E-2,1.4004934E0,2.4396105E0,2.4962282E0,1.7445129E0,3.3670812E0,2.465223E0,4.268625E0,3.3090436E0,5.2157426E0,4.2207937E0,5.957378E0,6.643252E0,7.4824524E0,8.74501E0],"categories":[],"categories_nodes":[],"categories_segments":[],"categories_sizes":[],"default_left":[0,0,0,0,0,0,0,0,0,0,0,0,0,0,0,0,0,0,0,0,0,0,0,0,0,0,0,0,0,0,0,0,0,0,0,0,0,0,0,0,0,0,0,0,0,0,0,0,0,0,0,0,0,0,0,0,0,0,0,0,0,0,0],"id":25,"left_children":[1,3,5,7,9,11,13,15,17,19,21,23,25,27,29,31,33,35,37,39,41,43,45,47,49,51,53,55,57,59,61,-1,-1,-1,-1,-1,-1,-1,-1,-1,-1,-1,-1,-1,-1,-1,-1,-1,-1,-1,-1,-1,-1,-1,-1,-1,-1,-1,-1,-1,-1,-1,-1],"loss_changes":[2.0831328E9,3.9196832E8,3.2584698E8,6.14592E7,3.807903E7,5.5836656E7,4.2128384E7,1.3382656E7,7.24192E6,5.207984E6,4.171439E6,7.768056E6,6.399696E6,5.115776E6,6.925696E6,3.130048E6,1.890336E6,1.764096E6,1.326464E6,1.273984E6,1.304916E6,1.344355E6,1.1486472E6,1.887618E6,1.609816E6,1.51932E6,1.450368E6,1.266992E6,9.0224E5,1.135424E6,1.016816E6,0E0,0E0,0E0,0E0,0E0,0E0,0E0,0E0,0E0,0E0,0E0,0E0,0E0,0E0,0E0,0E0,0E0,0E0,0E0,0E0,0E0,0E0,0E0,0E0,0E0,0E0,0E0,0E0,0E0,0E0,0E0,0E0],"parents":[2147483647,0,0,1,1,2,2,3,3,4,4,5,5,6,6,7,7,8,8,9,9,10,10,11,11,12,12,13,13,14,14,15,15,16,16,17,17,18,18,19,19,20,20,21,21,22,22,23,23,24,24,25,25,26,26,27,27,28,28,29,29,30,30],"right_children":[2,4,6,8,10,12,14,16,18,20,22,24,26,28,30,32,34,36,38,40,42,44,46,48,50,52,54,56,58,60,62,-1,-1,-1,-1,-1,-1,-1,-1,-1,-1,-1,-1,-1,-1,-1,-1,-1,-1,-1,-1,-1,-1,-1,-1,-1,-1,-1,-1,-1,-1,-1,-1],"split_conditions":[1.65174E3,1.4191E3,1.9075728E3,1.2735823E3,1.5443759E3,1.7803948E3,2.0484973E3,1.1734138E3,1.3552529E3,1.4845416E3,1.6046821E3,1.7195209E3,1.8467883E3,1.9782281E3,2.1530957E3,1.1009861E3,6E0,-1.8369701E-16,-2.5881904E-1,1.3919734E3,7.0710677E-1,7.0710677E-1,5E-1,8.660254E-1,7.0710677E-1,8.660254E-1,8.660254E-1,8.660254E-1,8.660254E-1,2.1008645E3,2.2250112E3,-8.245087E0,-6.890261E0,-5.992483E0,-5.2330837E0,-3.9259622E0,